digraph Tree {
node [shape=box, style="filled, rounded", color="black", fontname="helvetica"] ;
edge [fontname="helvetica"] ;
0 [label=<ActiveIngredient_STAVUDINE; LAMIVUDINE; NEVIRAPINE &le; 0.974<br/>gini = 0.091<br/>samples = 8232<br/>value = [7840, 392]<br/>class = AP>, fillcolor="#e68743"] ;
1 [label=<ActiveIngredient_ZOLEDRONIC ACID &le; 0.684<br/>gini = 0.089<br/>samples = 8225<br/>value = [7840, 385]<br/>class = AP>, fillcolor="#e68743"] ;
0 -> 1 [labeldistance=2.5, labelangle=45, headlabel="True"] ;
2 [label=<ReferenceStandard_0.0 &le; 0.285<br/>gini = 0.088<br/>samples = 8219<br/>value = [7838, 381]<br/>class = AP>, fillcolor="#e68743"] ;
1 -> 2 ;
3 [label=<SponsorName_GE HEALTHCARE &le; 0.481<br/>gini = 0.019<br/>samples = 1474<br/>value = [1460, 14]<br/>class = AP>, fillcolor="#e5823b"] ;
2 -> 3 ;
4 [label=<Form_CAPSULE;ORAL &le; 0.381<br/>gini = 0.018<br/>samples = 1457<br/>value = [1444, 13]<br/>class = AP>, fillcolor="#e5823b"] ;
3 -> 4 ;
5 [label=<ApplType_NDA &le; 0.858<br/>gini = 0.019<br/>samples = 1353<br/>value = [1340, 13]<br/>class = AP>, fillcolor="#e5823b"] ;
4 -> 5 ;
6 [label=<gini = 0.0<br/>samples = 211<br/>value = [211, 0]<br/>class = AP>, fillcolor="#e58139"] ;
5 -> 6 ;
7 [label=<SponsorName_BAXTER HLTHCARE &le; 0.092<br/>gini = 0.023<br/>samples = 1142<br/>value = [1129, 13]<br/>class = AP>, fillcolor="#e5823b"] ;
5 -> 7 ;
8 [label=<SponsorName_WYETH PHARMS &le; 0.089<br/>gini = 0.024<br/>samples = 1075<br/>value = [1062, 13]<br/>class = AP>, fillcolor="#e5833b"] ;
7 -> 8 ;
9 [label=<SponsorName_TEVA BRANDED PHARM &le; 0.313<br/>gini = 0.024<br/>samples = 1058<br/>value = [1045, 13]<br/>class = AP>, fillcolor="#e5833b"] ;
8 -> 9 ;
10 [label=<SponsorName_GLAXO GRP LTD &le; 0.319<br/>gini = 0.024<br/>samples = 1053<br/>value = [1040, 13]<br/>class = AP>, fillcolor="#e5833b"] ;
9 -> 10 ;
11 [label=<ReviewPriority_PRIORITY &le; 0.95<br/>gini = 0.025<br/>samples = 1046<br/>value = [1033, 13]<br/>class = AP>, fillcolor="#e5833b"] ;
10 -> 11 ;
12 [label=<SponsorName_BAUSCH &le; 0.843<br/>gini = 0.028<br/>samples = 911<br/>value = [898, 13]<br/>class = AP>, fillcolor="#e5833c"] ;
11 -> 12 ;
13 [label=<SponsorName_ROCHE PALO &le; 0.198<br/>gini = 0.029<br/>samples = 892<br/>value = [879, 13]<br/>class = AP>, fillcolor="#e5833c"] ;
12 -> 13 ;
14 [label=<SponsorName_ALLERGAN &le; 0.872<br/>gini = 0.029<br/>samples = 887<br/>value = [874, 13]<br/>class = AP>, fillcolor="#e5833c"] ;
13 -> 14 ;
15 [label=<Form_SOLUTION;SUBCUTANEOUS &le; 0.45<br/>gini = 0.03<br/>samples = 862<br/>value = [849, 13]<br/>class = AP>, fillcolor="#e5833c"] ;
14 -> 15 ;
16 [label=<ReviewPriority_UNKOWN &le; 0.101<br/>gini = 0.03<br/>samples = 858<br/>value = [845, 13]<br/>class = AP>, fillcolor="#e5833c"] ;
15 -> 16 ;
17 [label=<ActiveIngredient_BUPROPION HYDROCHLORIDE &le; 0.44<br/>gini = 0.006<br/>samples = 706<br/>value = [704, 2]<br/>class = AP>, fillcolor="#e5813a"] ;
16 -> 17 ;
18 [label=<Form_SOLUTION;IRRIGATION &le; 0.294<br/>gini = 0.006<br/>samples = 704<br/>value = [702, 2]<br/>class = AP>, fillcolor="#e5813a"] ;
17 -> 18 ;
19 [label=<ActiveIngredient_SODIUM CHLORIDE &le; 0.94<br/>gini = 0.006<br/>samples = 698<br/>value = [696, 2]<br/>class = AP>, fillcolor="#e5813a"] ;
18 -> 19 ;
20 [label=<SponsorName_ABBVIE ENDOCRINE INC &le; 0.622<br/>gini = 0.006<br/>samples = 687<br/>value = [685, 2]<br/>class = AP>, fillcolor="#e5813a"] ;
19 -> 20 ;
21 [label=<ActiveIngredient_DEXTROSE; POTASSIUM CHLORIDE; SODIUM CHLORIDE &le; 0.377<br/>gini = 0.003<br/>samples = 674<br/>value = [673, 1]<br/>class = AP>, fillcolor="#e58139"] ;
20 -> 21 ;
22 [label=<SponsorName_JANSSEN PHARMS &le; 0.51<br/>gini = 0.003<br/>samples = 666<br/>value = [665, 1]<br/>class = AP>, fillcolor="#e58139"] ;
21 -> 22 ;
23 [label=<ActiveIngredient_RIZATRIPTAN BENZOATE &le; 0.984<br/>gini = 0.003<br/>samples = 656<br/>value = [655, 1]<br/>class = AP>, fillcolor="#e58139"] ;
22 -> 23 ;
24 [label=<Form_SOLUTION/DROPS;OPHTHALMIC &le; 0.707<br/>gini = 0.003<br/>samples = 654<br/>value = [653, 1]<br/>class = AP>, fillcolor="#e58139"] ;
23 -> 24 ;
25 [label=<SponsorName_PFIZER INC &le; 0.369<br/>gini = 0.003<br/>samples = 638<br/>value = [637, 1]<br/>class = AP>, fillcolor="#e58139"] ;
24 -> 25 ;
26 [label=<Form_SPONGE;TOPICAL &le; 0.131<br/>gini = 0.003<br/>samples = 635<br/>value = [634, 1]<br/>class = AP>, fillcolor="#e58139"] ;
25 -> 26 ;
27 [label=<ReviewPriority_UNKNOWN &le; 0.8<br/>gini = 0.003<br/>samples = 625<br/>value = [624, 1]<br/>class = AP>, fillcolor="#e58139"] ;
26 -> 27 ;
28 [label=<Form_TABLET, ORALLY DISINTEGRATING;ORAL &le; 0.136<br/>gini = 0.003<br/>samples = 584<br/>value = [583, 1]<br/>class = AP>, fillcolor="#e58139"] ;
27 -> 28 ;
29 [label=<SponsorName_GLAXOSMITHKLINE &le; 0.25<br/>gini = 0.003<br/>samples = 580<br/>value = [579, 1]<br/>class = AP>, fillcolor="#e58139"] ;
28 -> 29 ;
30 [label=<Form_INJECTABLE;INJECTION &le; 0.583<br/>gini = 0.004<br/>samples = 570<br/>value = [569, 1]<br/>class = AP>, fillcolor="#e58139"] ;
29 -> 30 ;
31 [label=<Form_OIL;INTRALYMPHATIC, INTRAUTERINE &le; 0.364<br/>gini = 0.005<br/>samples = 390<br/>value = [389, 1]<br/>class = AP>, fillcolor="#e5813a"] ;
30 -> 31 ;
32 [label=<ActiveIngredient_VORICONAZOLE &le; 0.436<br/>gini = 0.005<br/>samples = 388<br/>value = [387, 1]<br/>class = AP>, fillcolor="#e5813a"] ;
31 -> 32 ;
33 [label=<ActiveIngredient_TEMSIROLIMUS &le; 0.261<br/>gini = 0.005<br/>samples = 385<br/>value = [384, 1]<br/>class = AP>, fillcolor="#e5813a"] ;
32 -> 33 ;
34 [label=<ActiveIngredient_DIAZEPAM &le; 0.282<br/>gini = 0.005<br/>samples = 381<br/>value = [380, 1]<br/>class = AP>, fillcolor="#e5813a"] ;
33 -> 34 ;
35 [label=<SubmissionNo &le; 50.377<br/>gini = 0.005<br/>samples = 378<br/>value = [377, 1]<br/>class = AP>, fillcolor="#e5813a"] ;
34 -> 35 ;
36 [label=<ActiveIngredient_ROMIDEPSIN &le; 0.778<br/>gini = 0.006<br/>samples = 355<br/>value = [354, 1]<br/>class = AP>, fillcolor="#e5813a"] ;
35 -> 36 ;
37 [label=<ActiveIngredient_ANIDULAFUNGIN &le; 0.287<br/>gini = 0.006<br/>samples = 353<br/>value = [352, 1]<br/>class = AP>, fillcolor="#e5813a"] ;
36 -> 37 ;
38 [label=<SubmissionNo &le; 45.806<br/>gini = 0.006<br/>samples = 351<br/>value = [350, 1]<br/>class = AP>, fillcolor="#e5813a"] ;
37 -> 38 ;
39 [label=<SponsorName_JOHNSON AND JOHNSON &le; 0.8<br/>gini = 0.006<br/>samples = 336<br/>value = [335, 1]<br/>class = AP>, fillcolor="#e5813a"] ;
38 -> 39 ;
40 [label=<SponsorName_GLAXOSMITHKLINE LLC &le; 0.699<br/>gini = 0.006<br/>samples = 334<br/>value = [333, 1]<br/>class = AP>, fillcolor="#e5813a"] ;
39 -> 40 ;
41 [label=<ActiveIngredient_BIVALIRUDIN &le; 0.839<br/>gini = 0.006<br/>samples = 330<br/>value = [329, 1]<br/>class = AP>, fillcolor="#e5813a"] ;
40 -> 41 ;
42 [label=<ActiveIngredient_ESTRADIOL; NORETHINDRONE ACETATE &le; 0.19<br/>gini = 0.006<br/>samples = 328<br/>value = [327, 1]<br/>class = AP>, fillcolor="#e5813a"] ;
41 -> 42 ;
43 [label=<SponsorName_NOVARTIS &le; 0.581<br/>gini = 0.006<br/>samples = 325<br/>value = [324, 1]<br/>class = AP>, fillcolor="#e5813a"] ;
42 -> 43 ;
44 [label=<SponsorName_PFIZER &le; 0.158<br/>gini = 0.006<br/>samples = 310<br/>value = [309, 1]<br/>class = AP>, fillcolor="#e5813a"] ;
43 -> 44 ;
45 [label=<SponsorName_HOSPIRA &le; 0.001<br/>gini = 0.007<br/>samples = 295<br/>value = [294, 1]<br/>class = AP>, fillcolor="#e5813a"] ;
44 -> 45 ;
46 [label=<ActiveIngredient_LEVETIRACETAM &le; 0.465<br/>gini = 0.007<br/>samples = 290<br/>value = [289, 1]<br/>class = AP>, fillcolor="#e5813a"] ;
45 -> 46 ;
47 [label=<ActiveIngredient_LEVONORGESTREL &le; 0.763<br/>gini = 0.007<br/>samples = 285<br/>value = [284, 1]<br/>class = AP>, fillcolor="#e5813a"] ;
46 -> 47 ;
48 [label=<SponsorName_VIATRIS &le; 0.656<br/>gini = 0.007<br/>samples = 282<br/>value = [281, 1]<br/>class = AP>, fillcolor="#e5813a"] ;
47 -> 48 ;
49 [label=<SponsorName_TAKEDA PHARMS USA &le; 0.56<br/>gini = 0.007<br/>samples = 277<br/>value = [276, 1]<br/>class = AP>, fillcolor="#e5813a"] ;
48 -> 49 ;
50 [label=<SponsorName_PF PRISM CV &le; 0.687<br/>gini = 0.007<br/>samples = 269<br/>value = [268, 1]<br/>class = AP>, fillcolor="#e5813a"] ;
49 -> 50 ;
51 [label=<SponsorName_UPJOHN &le; 0.372<br/>gini = 0.008<br/>samples = 265<br/>value = [264, 1]<br/>class = AP>, fillcolor="#e5813a"] ;
50 -> 51 ;
52 [label=<SponsorName_ASTRAZENECA &le; 0.414<br/>gini = 0.008<br/>samples = 262<br/>value = [261, 1]<br/>class = AP>, fillcolor="#e5813a"] ;
51 -> 52 ;
53 [label=<SponsorName_ORGANON LLC &le; 0.45<br/>gini = 0.008<br/>samples = 252<br/>value = [251, 1]<br/>class = AP>, fillcolor="#e5823a"] ;
52 -> 53 ;
54 [label=<SponsorName_BAYER HLTHCARE &le; 0.26<br/>gini = 0.008<br/>samples = 249<br/>value = [248, 1]<br/>class = AP>, fillcolor="#e5823a"] ;
53 -> 54 ;
55 [label=<ActiveIngredient_PROGESTERONE &le; 0.892<br/>gini = 0.008<br/>samples = 243<br/>value = [242, 1]<br/>class = AP>, fillcolor="#e5823a"] ;
54 -> 55 ;
56 [label=<SponsorName_MYLAN IRELAND LTD &le; 0.319<br/>gini = 0.008<br/>samples = 242<br/>value = [241, 1]<br/>class = AP>, fillcolor="#e5823a"] ;
55 -> 56 ;
57 [label=<Form_POWDER;INTRAVENOUS &le; 0.504<br/>gini = 0.008<br/>samples = 240<br/>value = [239, 1]<br/>class = AP>, fillcolor="#e5823a"] ;
56 -> 57 ;
58 [label=<SponsorName_CHIESI &le; 0.957<br/>gini = 0.008<br/>samples = 237<br/>value = [236, 1]<br/>class = AP>, fillcolor="#e5823a"] ;
57 -> 58 ;
59 [label=<SponsorName_MAYNE PHARMA &le; 0.554<br/>gini = 0.009<br/>samples = 233<br/>value = [232, 1]<br/>class = AP>, fillcolor="#e5823a"] ;
58 -> 59 ;
60 [label=<ActiveIngredient_GADOBENATE DIMEGLUMINE &le; 0.5<br/>gini = 0.009<br/>samples = 228<br/>value = [227, 1]<br/>class = AP>, fillcolor="#e5823a"] ;
59 -> 60 ;
61 [label=<ActiveIngredient_NICOTINE &le; 0.335<br/>gini = 0.009<br/>samples = 226<br/>value = [225, 1]<br/>class = AP>, fillcolor="#e5823a"] ;
60 -> 61 ;
62 [label=<ActiveIngredient_MICONAZOLE NITRATE &le; 0.614<br/>gini = 0.009<br/>samples = 225<br/>value = [224, 1]<br/>class = AP>, fillcolor="#e5823a"] ;
61 -> 62 ;
63 [label=<ActiveIngredient_NAPROXEN &le; 0.222<br/>gini = 0.009<br/>samples = 222<br/>value = [221, 1]<br/>class = AP>, fillcolor="#e5823a"] ;
62 -> 63 ;
64 [label=<Form_FOR SOLUTION;ORAL &le; 0.714<br/>gini = 0.009<br/>samples = 219<br/>value = [218, 1]<br/>class = AP>, fillcolor="#e5823a"] ;
63 -> 64 ;
65 [label=<Form_FOR SUSPENSION;ORAL &le; 0.211<br/>gini = 0.009<br/>samples = 214<br/>value = [213, 1]<br/>class = AP>, fillcolor="#e5823a"] ;
64 -> 65 ;
66 [label=<Form_AEROSOL, FOAM;TOPICAL &le; 0.383<br/>gini = 0.01<br/>samples = 208<br/>value = [207, 1]<br/>class = AP>, fillcolor="#e5823a"] ;
65 -> 66 ;
67 [label=<Form_OINTMENT;TOPICAL &le; 0.666<br/>gini = 0.01<br/>samples = 206<br/>value = [205, 1]<br/>class = AP>, fillcolor="#e5823a"] ;
66 -> 67 ;
68 [label=<SponsorName_FRESENIUS KABI USA &le; 0.99<br/>gini = 0.01<br/>samples = 203<br/>value = [202, 1]<br/>class = AP>, fillcolor="#e5823a"] ;
67 -> 68 ;
69 [label=<SponsorName_SANOFI AVENTIS US &le; 0.009<br/>gini = 0.01<br/>samples = 200<br/>value = [199, 1]<br/>class = AP>, fillcolor="#e5823a"] ;
68 -> 69 ;
70 [label=<SponsorName_TOPROL &le; 0.054<br/>gini = 0.01<br/>samples = 194<br/>value = [193, 1]<br/>class = AP>, fillcolor="#e5823a"] ;
69 -> 70 ;
71 [label=<Form_TABLET, DELAYED RELEASE;ORAL &le; 0.535<br/>gini = 0.01<br/>samples = 193<br/>value = [192, 1]<br/>class = AP>, fillcolor="#e5823a"] ;
70 -> 71 ;
72 [label=<ActiveIngredient_FLUOCINOLONE ACETONIDE &le; 0.561<br/>gini = 0.01<br/>samples = 191<br/>value = [190, 1]<br/>class = AP>, fillcolor="#e5823a"] ;
71 -> 72 ;
73 [label=<SponsorName_IPR &le; 0.502<br/>gini = 0.011<br/>samples = 188<br/>value = [187, 1]<br/>class = AP>, fillcolor="#e5823a"] ;
72 -> 73 ;
74 [label=<ActiveIngredient_LITHIUM CARBONATE &le; 0.192<br/>gini = 0.011<br/>samples = 186<br/>value = [185, 1]<br/>class = AP>, fillcolor="#e5823a"] ;
73 -> 74 ;
75 [label=<SponsorName_ALMATICA &le; 0.093<br/>gini = 0.011<br/>samples = 184<br/>value = [183, 1]<br/>class = AP>, fillcolor="#e5823a"] ;
74 -> 75 ;
76 [label=<Form_TABLET, CHEWABLE;ORAL &le; 0.054<br/>gini = 0.011<br/>samples = 178<br/>value = [177, 1]<br/>class = AP>, fillcolor="#e5823a"] ;
75 -> 76 ;
77 [label=<SponsorName_PAI HOLDINGS PHARM &le; 0.842<br/>gini = 0.011<br/>samples = 174<br/>value = [173, 1]<br/>class = AP>, fillcolor="#e5823a"] ;
76 -> 77 ;
78 [label=<SponsorName_BAYER HEALTHCARE LLC &le; 0.617<br/>gini = 0.011<br/>samples = 173<br/>value = [172, 1]<br/>class = AP>, fillcolor="#e5823a"] ;
77 -> 78 ;
79 [label=<SponsorName_UCB INC &le; 0.673<br/>gini = 0.012<br/>samples = 170<br/>value = [169, 1]<br/>class = AP>, fillcolor="#e5823a"] ;
78 -> 79 ;
80 [label=<SponsorName_CEPHALON &le; 0.681<br/>gini = 0.012<br/>samples = 168<br/>value = [167, 1]<br/>class = AP>, fillcolor="#e5823a"] ;
79 -> 80 ;
81 [label=<Form_SUSPENSION;TOPICAL &le; 0.53<br/>gini = 0.012<br/>samples = 163<br/>value = [162, 1]<br/>class = AP>, fillcolor="#e5823a"] ;
80 -> 81 ;
82 [label=<ActiveIngredient_LEVOTHYROXINE SODIUM &le; 0.034<br/>gini = 0.012<br/>samples = 160<br/>value = [159, 1]<br/>class = AP>, fillcolor="#e5823a"] ;
81 -> 82 ;
83 [label=<SponsorName_MYLAN SPECIALITY LP &le; 0.832<br/>gini = 0.012<br/>samples = 159<br/>value = [158, 1]<br/>class = AP>, fillcolor="#e5823a"] ;
82 -> 83 ;
84 [label=<SponsorName_PACIRA PHARMS INC &le; 0.762<br/>gini = 0.013<br/>samples = 155<br/>value = [154, 1]<br/>class = AP>, fillcolor="#e5823a"] ;
83 -> 84 ;
85 [label=<SponsorName_J AND J CONSUMER INC &le; 0.193<br/>gini = 0.013<br/>samples = 153<br/>value = [152, 1]<br/>class = AP>, fillcolor="#e5823a"] ;
84 -> 85 ;
86 [label=<ActiveIngredient_HISTRELIN ACETATE &le; 0.941<br/>gini = 0.014<br/>samples = 144<br/>value = [143, 1]<br/>class = AP>, fillcolor="#e5823a"] ;
85 -> 86 ;
87 [label=<SponsorName_AKORN &le; 0.395<br/>gini = 0.014<br/>samples = 143<br/>value = [142, 1]<br/>class = AP>, fillcolor="#e5823a"] ;
86 -> 87 ;
88 [label=<SponsorName_VALIDUS PHARMS &le; 0.319<br/>gini = 0.014<br/>samples = 140<br/>value = [139, 1]<br/>class = AP>, fillcolor="#e5823a"] ;
87 -> 88 ;
89 [label=<SponsorName_MSD SUB MERCK &le; 0.395<br/>gini = 0.014<br/>samples = 137<br/>value = [136, 1]<br/>class = AP>, fillcolor="#e5823a"] ;
88 -> 89 ;
90 [label=<SponsorName_VERITY &le; 0.418<br/>gini = 0.015<br/>samples = 135<br/>value = [134, 1]<br/>class = AP>, fillcolor="#e5823a"] ;
89 -> 90 ;
91 [label=<SponsorName_VEROSCIENCE &le; 0.731<br/>gini = 0.015<br/>samples = 133<br/>value = [132, 1]<br/>class = AP>, fillcolor="#e5823b"] ;
90 -> 91 ;
92 [label=<ActiveIngredient_CALCIUM CHLORIDE; DEXTROSE; MAGNESIUM CHLORIDE; SODIUM CHLORIDE; SODIUM LACTATE &le; 0.891<br/>gini = 0.015<br/>samples = 131<br/>value = [130, 1]<br/>class = AP>, fillcolor="#e5823b"] ;
91 -> 92 ;
93 [label=<SponsorName_POHL BOSKAMP &le; 0.266<br/>gini = 0.016<br/>samples = 126<br/>value = [125, 1]<br/>class = AP>, fillcolor="#e5823b"] ;
92 -> 93 ;
94 [label=<Form_SOLUTION;IM-IV &le; 0.405<br/>gini = 0.016<br/>samples = 124<br/>value = [123, 1]<br/>class = AP>, fillcolor="#e5823b"] ;
93 -> 94 ;
95 [label=<SponsorName_SANDOZ CANADA INC &le; 0.929<br/>gini = 0.016<br/>samples = 122<br/>value = [121, 1]<br/>class = AP>, fillcolor="#e5823b"] ;
94 -> 95 ;
96 [label=<SponsorName_LEO PHARMA AS &le; 0.742<br/>gini = 0.017<br/>samples = 119<br/>value = [118, 1]<br/>class = AP>, fillcolor="#e5823b"] ;
95 -> 96 ;
97 [label=<ActiveIngredient_TIOCONAZOLE &le; 0.952<br/>gini = 0.017<br/>samples = 118<br/>value = [117, 1]<br/>class = AP>, fillcolor="#e5823b"] ;
96 -> 97 ;
98 [label=<Form_TABLET;ORAL &le; 0.804<br/>gini = 0.017<br/>samples = 117<br/>value = [116, 1]<br/>class = AP>, fillcolor="#e5823b"] ;
97 -> 98 ;
99 [label=<SponsorName_MEDICURE &le; 0.848<br/>gini = 0.029<br/>samples = 68<br/>value = [67, 1]<br/>class = AP>, fillcolor="#e5833c"] ;
98 -> 99 ;
100 [label=<Form_INSERT, EXTENDED RELEASE;VAGINAL &le; 0.798<br/>gini = 0.029<br/>samples = 67<br/>value = [66, 1]<br/>class = AP>, fillcolor="#e5833c"] ;
99 -> 100 ;
101 [label=<ActiveIngredient_LOTEPREDNOL ETABONATE &le; 0.745<br/>gini = 0.03<br/>samples = 65<br/>value = [64, 1]<br/>class = AP>, fillcolor="#e5833c"] ;
100 -> 101 ;
102 [label=<SponsorName_TEIKOKU PHARMA USA &le; 0.089<br/>gini = 0.031<br/>samples = 64<br/>value = [63, 1]<br/>class = AP>, fillcolor="#e5833c"] ;
101 -> 102 ;
103 [label=<ActiveIngredient_AZELAIC ACID &le; 0.507<br/>gini = 0.031<br/>samples = 63<br/>value = [62, 1]<br/>class = AP>, fillcolor="#e5833c"] ;
102 -> 103 ;
104 [label=<Form_SPRAY, METERED;NASAL &le; 0.532<br/>gini = 0.032<br/>samples = 62<br/>value = [61, 1]<br/>class = AP>, fillcolor="#e5833c"] ;
103 -> 104 ;
105 [label=<Form_SUSPENSION, EXTENDED RELEASE;INTRAMUSCULAR &le; 0.354<br/>gini = 0.032<br/>samples = 61<br/>value = [60, 1]<br/>class = AP>, fillcolor="#e5833c"] ;
104 -> 105 ;
106 [label=<SponsorName_COOPERSURGICAL &le; 0.883<br/>gini = 0.033<br/>samples = 59<br/>value = [58, 1]<br/>class = AP>, fillcolor="#e5833c"] ;
105 -> 106 ;
107 [label=<Form_POWDER;ORAL &le; 0.981<br/>gini = 0.034<br/>samples = 58<br/>value = [57, 1]<br/>class = AP>, fillcolor="#e5833c"] ;
106 -> 107 ;
108 [label=<Form_SUSPENSION;ORAL &le; 0.432<br/>gini = 0.034<br/>samples = 57<br/>value = [56, 1]<br/>class = AP>, fillcolor="#e5833d"] ;
107 -> 108 ;
109 [label=<SubmissionNo &le; 15.372<br/>gini = 0.035<br/>samples = 56<br/>value = [55, 1]<br/>class = AP>, fillcolor="#e5833d"] ;
108 -> 109 ;
110 [label=<gini = 0.0<br/>samples = 40<br/>value = [40, 0]<br/>class = AP>, fillcolor="#e58139"] ;
109 -> 110 ;
111 [label=<Form_SUSPENSION/DROPS;OTIC &le; 0.27<br/>gini = 0.117<br/>samples = 16<br/>value = [15, 1]<br/>class = AP>, fillcolor="#e78946"] ;
109 -> 111 ;
112 [label=<Form_CREAM;TOPICAL &le; 0.579<br/>gini = 0.124<br/>samples = 15<br/>value = [14, 1]<br/>class = AP>, fillcolor="#e78a47"] ;
111 -> 112 ;
113 [label=<SponsorName_GLAXOSMITHKLINE CONS &le; 0.515<br/>gini = 0.133<br/>samples = 14<br/>value = [13, 1]<br/>class = AP>, fillcolor="#e78b48"] ;
112 -> 113 ;
114 [label=<Form_SOLUTION;ORAL &le; 0.827<br/>gini = 0.142<br/>samples = 13<br/>value = [12, 1]<br/>class = AP>, fillcolor="#e78c49"] ;
113 -> 114 ;
115 [label=<SponsorName_CURIUM &le; 0.968<br/>gini = 0.153<br/>samples = 12<br/>value = [11, 1]<br/>class = AP>, fillcolor="#e78c4b"] ;
114 -> 115 ;
116 [label=<SubmissionNo &le; 35.795<br/>gini = 0.165<br/>samples = 11<br/>value = [10, 1]<br/>class = AP>, fillcolor="#e88e4d"] ;
115 -> 116 ;
117 [label=<gini = 0.0<br/>samples = 8<br/>value = [8, 0]<br/>class = AP>, fillcolor="#e58139"] ;
116 -> 117 ;
118 [label=<Form_CAPSULE, DELAYED REL PELLETS;ORAL &le; 0.57<br/>gini = 0.444<br/>samples = 3<br/>value = [2, 1]<br/>class = AP>, fillcolor="#f2c09c"] ;
116 -> 118 ;
119 [label=<Form_SOLUTION;INTRAVENOUS &le; 0.02<br/>gini = 0.5<br/>samples = 2<br/>value = [1, 1]<br/>class = AP>, fillcolor="#ffffff"] ;
118 -> 119 ;
120 [label=<gini = 0.0<br/>samples = 1<br/>value = [1, 0]<br/>class = AP>, fillcolor="#e58139"] ;
119 -> 120 ;
121 [label=<gini = 0.0<br/>samples = 1<br/>value = [0, 1]<br/>class = TA>, fillcolor="#399de5"] ;
119 -> 121 ;
122 [label=<gini = 0.0<br/>samples = 1<br/>value = [1, 0]<br/>class = AP>, fillcolor="#e58139"] ;
118 -> 122 ;
123 [label=<gini = 0.0<br/>samples = 1<br/>value = [1, 0]<br/>class = AP>, fillcolor="#e58139"] ;
115 -> 123 ;
124 [label=<gini = 0.0<br/>samples = 1<br/>value = [1, 0]<br/>class = AP>, fillcolor="#e58139"] ;
114 -> 124 ;
125 [label=<gini = 0.0<br/>samples = 1<br/>value = [1, 0]<br/>class = AP>, fillcolor="#e58139"] ;
113 -> 125 ;
126 [label=<gini = 0.0<br/>samples = 1<br/>value = [1, 0]<br/>class = AP>, fillcolor="#e58139"] ;
112 -> 126 ;
127 [label=<gini = 0.0<br/>samples = 1<br/>value = [1, 0]<br/>class = AP>, fillcolor="#e58139"] ;
111 -> 127 ;
128 [label=<gini = 0.0<br/>samples = 1<br/>value = [1, 0]<br/>class = AP>, fillcolor="#e58139"] ;
108 -> 128 ;
129 [label=<gini = 0.0<br/>samples = 1<br/>value = [1, 0]<br/>class = AP>, fillcolor="#e58139"] ;
107 -> 129 ;
130 [label=<gini = 0.0<br/>samples = 1<br/>value = [1, 0]<br/>class = AP>, fillcolor="#e58139"] ;
106 -> 130 ;
131 [label=<gini = 0.0<br/>samples = 2<br/>value = [2, 0]<br/>class = AP>, fillcolor="#e58139"] ;
105 -> 131 ;
132 [label=<gini = 0.0<br/>samples = 1<br/>value = [1, 0]<br/>class = AP>, fillcolor="#e58139"] ;
104 -> 132 ;
133 [label=<gini = 0.0<br/>samples = 1<br/>value = [1, 0]<br/>class = AP>, fillcolor="#e58139"] ;
103 -> 133 ;
134 [label=<gini = 0.0<br/>samples = 1<br/>value = [1, 0]<br/>class = AP>, fillcolor="#e58139"] ;
102 -> 134 ;
135 [label=<gini = 0.0<br/>samples = 1<br/>value = [1, 0]<br/>class = AP>, fillcolor="#e58139"] ;
101 -> 135 ;
136 [label=<gini = 0.0<br/>samples = 2<br/>value = [2, 0]<br/>class = AP>, fillcolor="#e58139"] ;
100 -> 136 ;
137 [label=<gini = 0.0<br/>samples = 1<br/>value = [1, 0]<br/>class = AP>, fillcolor="#e58139"] ;
99 -> 137 ;
138 [label=<gini = 0.0<br/>samples = 49<br/>value = [49, 0]<br/>class = AP>, fillcolor="#e58139"] ;
98 -> 138 ;
139 [label=<gini = 0.0<br/>samples = 1<br/>value = [1, 0]<br/>class = AP>, fillcolor="#e58139"] ;
97 -> 139 ;
140 [label=<gini = 0.0<br/>samples = 1<br/>value = [1, 0]<br/>class = AP>, fillcolor="#e58139"] ;
96 -> 140 ;
141 [label=<gini = 0.0<br/>samples = 3<br/>value = [3, 0]<br/>class = AP>, fillcolor="#e58139"] ;
95 -> 141 ;
142 [label=<gini = 0.0<br/>samples = 2<br/>value = [2, 0]<br/>class = AP>, fillcolor="#e58139"] ;
94 -> 142 ;
143 [label=<gini = 0.0<br/>samples = 2<br/>value = [2, 0]<br/>class = AP>, fillcolor="#e58139"] ;
93 -> 143 ;
144 [label=<gini = 0.0<br/>samples = 5<br/>value = [5, 0]<br/>class = AP>, fillcolor="#e58139"] ;
92 -> 144 ;
145 [label=<gini = 0.0<br/>samples = 2<br/>value = [2, 0]<br/>class = AP>, fillcolor="#e58139"] ;
91 -> 145 ;
146 [label=<gini = 0.0<br/>samples = 2<br/>value = [2, 0]<br/>class = AP>, fillcolor="#e58139"] ;
90 -> 146 ;
147 [label=<gini = 0.0<br/>samples = 2<br/>value = [2, 0]<br/>class = AP>, fillcolor="#e58139"] ;
89 -> 147 ;
148 [label=<gini = 0.0<br/>samples = 3<br/>value = [3, 0]<br/>class = AP>, fillcolor="#e58139"] ;
88 -> 148 ;
149 [label=<gini = 0.0<br/>samples = 3<br/>value = [3, 0]<br/>class = AP>, fillcolor="#e58139"] ;
87 -> 149 ;
150 [label=<gini = 0.0<br/>samples = 1<br/>value = [1, 0]<br/>class = AP>, fillcolor="#e58139"] ;
86 -> 150 ;
151 [label=<gini = 0.0<br/>samples = 9<br/>value = [9, 0]<br/>class = AP>, fillcolor="#e58139"] ;
85 -> 151 ;
152 [label=<gini = 0.0<br/>samples = 2<br/>value = [2, 0]<br/>class = AP>, fillcolor="#e58139"] ;
84 -> 152 ;
153 [label=<gini = 0.0<br/>samples = 4<br/>value = [4, 0]<br/>class = AP>, fillcolor="#e58139"] ;
83 -> 153 ;
154 [label=<gini = 0.0<br/>samples = 1<br/>value = [1, 0]<br/>class = AP>, fillcolor="#e58139"] ;
82 -> 154 ;
155 [label=<gini = 0.0<br/>samples = 3<br/>value = [3, 0]<br/>class = AP>, fillcolor="#e58139"] ;
81 -> 155 ;
156 [label=<gini = 0.0<br/>samples = 5<br/>value = [5, 0]<br/>class = AP>, fillcolor="#e58139"] ;
80 -> 156 ;
157 [label=<gini = 0.0<br/>samples = 2<br/>value = [2, 0]<br/>class = AP>, fillcolor="#e58139"] ;
79 -> 157 ;
158 [label=<gini = 0.0<br/>samples = 3<br/>value = [3, 0]<br/>class = AP>, fillcolor="#e58139"] ;
78 -> 158 ;
159 [label=<gini = 0.0<br/>samples = 1<br/>value = [1, 0]<br/>class = AP>, fillcolor="#e58139"] ;
77 -> 159 ;
160 [label=<gini = 0.0<br/>samples = 4<br/>value = [4, 0]<br/>class = AP>, fillcolor="#e58139"] ;
76 -> 160 ;
161 [label=<gini = 0.0<br/>samples = 6<br/>value = [6, 0]<br/>class = AP>, fillcolor="#e58139"] ;
75 -> 161 ;
162 [label=<gini = 0.0<br/>samples = 2<br/>value = [2, 0]<br/>class = AP>, fillcolor="#e58139"] ;
74 -> 162 ;
163 [label=<gini = 0.0<br/>samples = 2<br/>value = [2, 0]<br/>class = AP>, fillcolor="#e58139"] ;
73 -> 163 ;
164 [label=<gini = 0.0<br/>samples = 3<br/>value = [3, 0]<br/>class = AP>, fillcolor="#e58139"] ;
72 -> 164 ;
165 [label=<gini = 0.0<br/>samples = 2<br/>value = [2, 0]<br/>class = AP>, fillcolor="#e58139"] ;
71 -> 165 ;
166 [label=<gini = 0.0<br/>samples = 1<br/>value = [1, 0]<br/>class = AP>, fillcolor="#e58139"] ;
70 -> 166 ;
167 [label=<gini = 0.0<br/>samples = 6<br/>value = [6, 0]<br/>class = AP>, fillcolor="#e58139"] ;
69 -> 167 ;
168 [label=<gini = 0.0<br/>samples = 3<br/>value = [3, 0]<br/>class = AP>, fillcolor="#e58139"] ;
68 -> 168 ;
169 [label=<gini = 0.0<br/>samples = 3<br/>value = [3, 0]<br/>class = AP>, fillcolor="#e58139"] ;
67 -> 169 ;
170 [label=<gini = 0.0<br/>samples = 2<br/>value = [2, 0]<br/>class = AP>, fillcolor="#e58139"] ;
66 -> 170 ;
171 [label=<gini = 0.0<br/>samples = 6<br/>value = [6, 0]<br/>class = AP>, fillcolor="#e58139"] ;
65 -> 171 ;
172 [label=<gini = 0.0<br/>samples = 5<br/>value = [5, 0]<br/>class = AP>, fillcolor="#e58139"] ;
64 -> 172 ;
173 [label=<gini = 0.0<br/>samples = 3<br/>value = [3, 0]<br/>class = AP>, fillcolor="#e58139"] ;
63 -> 173 ;
174 [label=<gini = 0.0<br/>samples = 3<br/>value = [3, 0]<br/>class = AP>, fillcolor="#e58139"] ;
62 -> 174 ;
175 [label=<gini = 0.0<br/>samples = 1<br/>value = [1, 0]<br/>class = AP>, fillcolor="#e58139"] ;
61 -> 175 ;
176 [label=<gini = 0.0<br/>samples = 2<br/>value = [2, 0]<br/>class = AP>, fillcolor="#e58139"] ;
60 -> 176 ;
177 [label=<gini = 0.0<br/>samples = 5<br/>value = [5, 0]<br/>class = AP>, fillcolor="#e58139"] ;
59 -> 177 ;
178 [label=<gini = 0.0<br/>samples = 4<br/>value = [4, 0]<br/>class = AP>, fillcolor="#e58139"] ;
58 -> 178 ;
179 [label=<gini = 0.0<br/>samples = 3<br/>value = [3, 0]<br/>class = AP>, fillcolor="#e58139"] ;
57 -> 179 ;
180 [label=<gini = 0.0<br/>samples = 2<br/>value = [2, 0]<br/>class = AP>, fillcolor="#e58139"] ;
56 -> 180 ;
181 [label=<gini = 0.0<br/>samples = 1<br/>value = [1, 0]<br/>class = AP>, fillcolor="#e58139"] ;
55 -> 181 ;
182 [label=<gini = 0.0<br/>samples = 6<br/>value = [6, 0]<br/>class = AP>, fillcolor="#e58139"] ;
54 -> 182 ;
183 [label=<gini = 0.0<br/>samples = 3<br/>value = [3, 0]<br/>class = AP>, fillcolor="#e58139"] ;
53 -> 183 ;
184 [label=<gini = 0.0<br/>samples = 10<br/>value = [10, 0]<br/>class = AP>, fillcolor="#e58139"] ;
52 -> 184 ;
185 [label=<gini = 0.0<br/>samples = 3<br/>value = [3, 0]<br/>class = AP>, fillcolor="#e58139"] ;
51 -> 185 ;
186 [label=<gini = 0.0<br/>samples = 4<br/>value = [4, 0]<br/>class = AP>, fillcolor="#e58139"] ;
50 -> 186 ;
187 [label=<gini = 0.0<br/>samples = 8<br/>value = [8, 0]<br/>class = AP>, fillcolor="#e58139"] ;
49 -> 187 ;
188 [label=<gini = 0.0<br/>samples = 5<br/>value = [5, 0]<br/>class = AP>, fillcolor="#e58139"] ;
48 -> 188 ;
189 [label=<gini = 0.0<br/>samples = 3<br/>value = [3, 0]<br/>class = AP>, fillcolor="#e58139"] ;
47 -> 189 ;
190 [label=<gini = 0.0<br/>samples = 5<br/>value = [5, 0]<br/>class = AP>, fillcolor="#e58139"] ;
46 -> 190 ;
191 [label=<gini = 0.0<br/>samples = 5<br/>value = [5, 0]<br/>class = AP>, fillcolor="#e58139"] ;
45 -> 191 ;
192 [label=<gini = 0.0<br/>samples = 15<br/>value = [15, 0]<br/>class = AP>, fillcolor="#e58139"] ;
44 -> 192 ;
193 [label=<gini = 0.0<br/>samples = 15<br/>value = [15, 0]<br/>class = AP>, fillcolor="#e58139"] ;
43 -> 193 ;
194 [label=<gini = 0.0<br/>samples = 3<br/>value = [3, 0]<br/>class = AP>, fillcolor="#e58139"] ;
42 -> 194 ;
195 [label=<gini = 0.0<br/>samples = 2<br/>value = [2, 0]<br/>class = AP>, fillcolor="#e58139"] ;
41 -> 195 ;
196 [label=<gini = 0.0<br/>samples = 4<br/>value = [4, 0]<br/>class = AP>, fillcolor="#e58139"] ;
40 -> 196 ;
197 [label=<gini = 0.0<br/>samples = 2<br/>value = [2, 0]<br/>class = AP>, fillcolor="#e58139"] ;
39 -> 197 ;
198 [label=<gini = 0.0<br/>samples = 15<br/>value = [15, 0]<br/>class = AP>, fillcolor="#e58139"] ;
38 -> 198 ;
199 [label=<gini = 0.0<br/>samples = 2<br/>value = [2, 0]<br/>class = AP>, fillcolor="#e58139"] ;
37 -> 199 ;
200 [label=<gini = 0.0<br/>samples = 2<br/>value = [2, 0]<br/>class = AP>, fillcolor="#e58139"] ;
36 -> 200 ;
201 [label=<gini = 0.0<br/>samples = 23<br/>value = [23, 0]<br/>class = AP>, fillcolor="#e58139"] ;
35 -> 201 ;
202 [label=<gini = 0.0<br/>samples = 3<br/>value = [3, 0]<br/>class = AP>, fillcolor="#e58139"] ;
34 -> 202 ;
203 [label=<gini = 0.0<br/>samples = 4<br/>value = [4, 0]<br/>class = AP>, fillcolor="#e58139"] ;
33 -> 203 ;
204 [label=<gini = 0.0<br/>samples = 3<br/>value = [3, 0]<br/>class = AP>, fillcolor="#e58139"] ;
32 -> 204 ;
205 [label=<gini = 0.0<br/>samples = 2<br/>value = [2, 0]<br/>class = AP>, fillcolor="#e58139"] ;
31 -> 205 ;
206 [label=<gini = 0.0<br/>samples = 180<br/>value = [180, 0]<br/>class = AP>, fillcolor="#e58139"] ;
30 -> 206 ;
207 [label=<gini = 0.0<br/>samples = 10<br/>value = [10, 0]<br/>class = AP>, fillcolor="#e58139"] ;
29 -> 207 ;
208 [label=<gini = 0.0<br/>samples = 4<br/>value = [4, 0]<br/>class = AP>, fillcolor="#e58139"] ;
28 -> 208 ;
209 [label=<gini = 0.0<br/>samples = 41<br/>value = [41, 0]<br/>class = AP>, fillcolor="#e58139"] ;
27 -> 209 ;
210 [label=<gini = 0.0<br/>samples = 10<br/>value = [10, 0]<br/>class = AP>, fillcolor="#e58139"] ;
26 -> 210 ;
211 [label=<gini = 0.0<br/>samples = 3<br/>value = [3, 0]<br/>class = AP>, fillcolor="#e58139"] ;
25 -> 211 ;
212 [label=<gini = 0.0<br/>samples = 16<br/>value = [16, 0]<br/>class = AP>, fillcolor="#e58139"] ;
24 -> 212 ;
213 [label=<gini = 0.0<br/>samples = 2<br/>value = [2, 0]<br/>class = AP>, fillcolor="#e58139"] ;
23 -> 213 ;
214 [label=<gini = 0.0<br/>samples = 10<br/>value = [10, 0]<br/>class = AP>, fillcolor="#e58139"] ;
22 -> 214 ;
215 [label=<gini = 0.0<br/>samples = 8<br/>value = [8, 0]<br/>class = AP>, fillcolor="#e58139"] ;
21 -> 215 ;
216 [label=<Form_POWDER;INTRAMUSCULAR &le; 0.79<br/>gini = 0.142<br/>samples = 13<br/>value = [12, 1]<br/>class = AP>, fillcolor="#e78c49"] ;
20 -> 216 ;
217 [label=<ReviewPriority_UNKNOWN &le; 0.709<br/>gini = 0.278<br/>samples = 6<br/>value = [5, 1]<br/>class = AP>, fillcolor="#ea9a61"] ;
216 -> 217 ;
218 [label=<SubmissionNo &le; 37.467<br/>gini = 0.32<br/>samples = 5<br/>value = [4, 1]<br/>class = AP>, fillcolor="#eca06a"] ;
217 -> 218 ;
219 [label=<gini = 0.0<br/>samples = 4<br/>value = [4, 0]<br/>class = AP>, fillcolor="#e58139"] ;
218 -> 219 ;
220 [label=<gini = 0.0<br/>samples = 1<br/>value = [0, 1]<br/>class = TA>, fillcolor="#399de5"] ;
218 -> 220 ;
221 [label=<gini = 0.0<br/>samples = 1<br/>value = [1, 0]<br/>class = AP>, fillcolor="#e58139"] ;
217 -> 221 ;
222 [label=<gini = 0.0<br/>samples = 7<br/>value = [7, 0]<br/>class = AP>, fillcolor="#e58139"] ;
216 -> 222 ;
223 [label=<gini = 0.0<br/>samples = 11<br/>value = [11, 0]<br/>class = AP>, fillcolor="#e58139"] ;
19 -> 223 ;
224 [label=<gini = 0.0<br/>samples = 6<br/>value = [6, 0]<br/>class = AP>, fillcolor="#e58139"] ;
18 -> 224 ;
225 [label=<gini = 0.0<br/>samples = 2<br/>value = [2, 0]<br/>class = AP>, fillcolor="#e58139"] ;
17 -> 225 ;
226 [label=<SponsorName_ICU MEDICAL INC &le; 0.15<br/>gini = 0.134<br/>samples = 152<br/>value = [141, 11]<br/>class = AP>, fillcolor="#e78b48"] ;
16 -> 226 ;
227 [label=<ActiveIngredient_DIAZEPAM &le; 0.815<br/>gini = 0.139<br/>samples = 146<br/>value = [135, 11]<br/>class = AP>, fillcolor="#e78b49"] ;
226 -> 227 ;
228 [label=<ActiveIngredient_AMINO ACIDS &le; 0.515<br/>gini = 0.141<br/>samples = 144<br/>value = [133, 11]<br/>class = AP>, fillcolor="#e78b49"] ;
227 -> 228 ;
229 [label=<ActiveIngredient_FENTANYL CITRATE &le; 0.265<br/>gini = 0.143<br/>samples = 142<br/>value = [131, 11]<br/>class = AP>, fillcolor="#e78c4a"] ;
228 -> 229 ;
230 [label=<ActiveIngredient_TREPROSTINIL &le; 0.61<br/>gini = 0.132<br/>samples = 141<br/>value = [131, 10]<br/>class = AP>, fillcolor="#e78b48"] ;
229 -> 230 ;
231 [label=<SponsorName_GLAXOSMITHKLINE CONS &le; 0.98<br/>gini = 0.071<br/>samples = 135<br/>value = [130, 5]<br/>class = AP>, fillcolor="#e68641"] ;
230 -> 231 ;
232 [label=<SponsorName_JANSSEN R AND D &le; 0.484<br/>gini = 0.072<br/>samples = 133<br/>value = [128, 5]<br/>class = AP>, fillcolor="#e68641"] ;
231 -> 232 ;
233 [label=<SponsorName_FRESENIUS KABI USA &le; 0.685<br/>gini = 0.073<br/>samples = 132<br/>value = [127, 5]<br/>class = AP>, fillcolor="#e68641"] ;
232 -> 233 ;
234 [label=<ActiveIngredient_DEXAMETHASONE; NEOMYCIN SULFATE; POLYMYXIN B SULFATE &le; 0.891<br/>gini = 0.085<br/>samples = 113<br/>value = [108, 5]<br/>class = AP>, fillcolor="#e68742"] ;
233 -> 234 ;
235 [label=<ActiveIngredient_DIMERCAPROL &le; 0.68<br/>gini = 0.088<br/>samples = 109<br/>value = [104, 5]<br/>class = AP>, fillcolor="#e68743"] ;
234 -> 235 ;
236 [label=<SponsorName_AVET LIFESCIENCES &le; 0.707<br/>gini = 0.071<br/>samples = 108<br/>value = [104, 4]<br/>class = AP>, fillcolor="#e68641"] ;
235 -> 236 ;
237 [label=<Form_SPONGE;TOPICAL &le; 0.442<br/>gini = 0.072<br/>samples = 107<br/>value = [103, 4]<br/>class = AP>, fillcolor="#e68641"] ;
236 -> 237 ;
238 [label=<ActiveIngredient_VITAMIN A PALMITATE &le; 0.646<br/>gini = 0.073<br/>samples = 105<br/>value = [101, 4]<br/>class = AP>, fillcolor="#e68641"] ;
237 -> 238 ;
239 [label=<SponsorName_HIKMA &le; 0.415<br/>gini = 0.074<br/>samples = 104<br/>value = [100, 4]<br/>class = AP>, fillcolor="#e68641"] ;
238 -> 239 ;
240 [label=<ActiveIngredient_LINCOMYCIN HYDROCHLORIDE &le; 0.476<br/>gini = 0.078<br/>samples = 99<br/>value = [95, 4]<br/>class = AP>, fillcolor="#e68641"] ;
239 -> 240 ;
241 [label=<SponsorName_PHARMACIA AND UPJOHN &le; 0.605<br/>gini = 0.081<br/>samples = 95<br/>value = [91, 4]<br/>class = AP>, fillcolor="#e68742"] ;
240 -> 241 ;
242 [label=<SponsorName_LIEBEL-FLARSHEIM &le; 0.446<br/>gini = 0.081<br/>samples = 94<br/>value = [90, 4]<br/>class = AP>, fillcolor="#e68742"] ;
241 -> 242 ;
243 [label=<SponsorName_MERCK &le; 0.749<br/>gini = 0.082<br/>samples = 93<br/>value = [89, 4]<br/>class = AP>, fillcolor="#e68742"] ;
242 -> 243 ;
244 [label=<SponsorName_SUN PHARM INDS INC &le; 0.71<br/>gini = 0.083<br/>samples = 92<br/>value = [88, 4]<br/>class = AP>, fillcolor="#e68742"] ;
243 -> 244 ;
245 [label=<Form_OINTMENT;TOPICAL &le; 0.854<br/>gini = 0.084<br/>samples = 91<br/>value = [87, 4]<br/>class = AP>, fillcolor="#e68742"] ;
244 -> 245 ;
246 [label=<ActiveIngredient_METHADONE HYDROCHLORIDE &le; 0.099<br/>gini = 0.085<br/>samples = 90<br/>value = [86, 4]<br/>class = AP>, fillcolor="#e68742"] ;
245 -> 246 ;
247 [label=<ActiveIngredient_SODIUM CHLORIDE &le; 0.217<br/>gini = 0.086<br/>samples = 89<br/>value = [85, 4]<br/>class = AP>, fillcolor="#e68742"] ;
246 -> 247 ;
248 [label=<ActiveIngredient_DOPAMINE HYDROCHLORIDE &le; 0.896<br/>gini = 0.088<br/>samples = 87<br/>value = [83, 4]<br/>class = AP>, fillcolor="#e68743"] ;
247 -> 248 ;
249 [label=<SponsorName_DAVA PHARMS INC &le; 0.27<br/>gini = 0.093<br/>samples = 82<br/>value = [78, 4]<br/>class = AP>, fillcolor="#e68743"] ;
248 -> 249 ;
250 [label=<ActiveIngredient_POLYETHYLENE GLYCOL 3350 &le; 0.731<br/>gini = 0.095<br/>samples = 80<br/>value = [76, 4]<br/>class = AP>, fillcolor="#e68843"] ;
249 -> 250 ;
251 [label=<ActiveIngredient_DEXTROAMPHETAMINE SULFATE &le; 0.404<br/>gini = 0.096<br/>samples = 79<br/>value = [75, 4]<br/>class = AP>, fillcolor="#e68844"] ;
250 -> 251 ;
252 [label=<SponsorName_PFIZER &le; 0.894<br/>gini = 0.097<br/>samples = 78<br/>value = [74, 4]<br/>class = AP>, fillcolor="#e68844"] ;
251 -> 252 ;
253 [label=<SponsorName_ENDO PHARMS INC &le; 0.777<br/>gini = 0.109<br/>samples = 69<br/>value = [65, 4]<br/>class = AP>, fillcolor="#e78945"] ;
252 -> 253 ;
254 [label=<SponsorName_AMNEAL &le; 0.917<br/>gini = 0.112<br/>samples = 67<br/>value = [63, 4]<br/>class = AP>, fillcolor="#e78946"] ;
253 -> 254 ;
255 [label=<ActiveIngredient_HYDROCHLOROTHIAZIDE; LISINOPRIL &le; 0.829<br/>gini = 0.114<br/>samples = 66<br/>value = [62, 4]<br/>class = AP>, fillcolor="#e78946"] ;
254 -> 255 ;
256 [label=<SponsorName_LANTHEUS MEDCL &le; 0.084<br/>gini = 0.116<br/>samples = 65<br/>value = [61, 4]<br/>class = AP>, fillcolor="#e78946"] ;
255 -> 256 ;
257 [label=<SponsorName_CHIESI &le; 0.098<br/>gini = 0.117<br/>samples = 64<br/>value = [60, 4]<br/>class = AP>, fillcolor="#e78946"] ;
256 -> 257 ;
258 [label=<ActiveIngredient_MICAFUNGIN SODIUM &le; 0.358<br/>gini = 0.121<br/>samples = 62<br/>value = [58, 4]<br/>class = AP>, fillcolor="#e78a47"] ;
257 -> 258 ;
259 [label=<SponsorName_VALIDUS PHARMS &le; 0.906<br/>gini = 0.064<br/>samples = 60<br/>value = [58, 2]<br/>class = AP>, fillcolor="#e68540"] ;
258 -> 259 ;
260 [label=<Form_SOLUTION;ORAL &le; 0.809<br/>gini = 0.065<br/>samples = 59<br/>value = [57, 2]<br/>class = AP>, fillcolor="#e68540"] ;
259 -> 260 ;
261 [label=<Form_SUSPENSION/DROPS;OPHTHALMIC &le; 0.513<br/>gini = 0.067<br/>samples = 58<br/>value = [56, 2]<br/>class = AP>, fillcolor="#e68640"] ;
260 -> 261 ;
262 [label=<SponsorName_ALMIRALL &le; 0.012<br/>gini = 0.068<br/>samples = 57<br/>value = [55, 2]<br/>class = AP>, fillcolor="#e68640"] ;
261 -> 262 ;
263 [label=<ActiveIngredient_INDOCYANINE GREEN &le; 0.18<br/>gini = 0.069<br/>samples = 56<br/>value = [54, 2]<br/>class = AP>, fillcolor="#e68640"] ;
262 -> 263 ;
264 [label=<Form_CREAM;TOPICAL &le; 0.931<br/>gini = 0.036<br/>samples = 55<br/>value = [54, 1]<br/>class = AP>, fillcolor="#e5833d"] ;
263 -> 264 ;
265 [label=<ActiveIngredient_POTASSIUM CHLORIDE &le; 0.313<br/>gini = 0.037<br/>samples = 53<br/>value = [52, 1]<br/>class = AP>, fillcolor="#e6833d"] ;
264 -> 265 ;
266 [label=<SponsorName_KEY THERAP &le; 0.787<br/>gini = 0.038<br/>samples = 52<br/>value = [51, 1]<br/>class = AP>, fillcolor="#e6833d"] ;
265 -> 266 ;
267 [label=<SponsorName_JANSSEN PHARMS &le; 0.462<br/>gini = 0.038<br/>samples = 51<br/>value = [50, 1]<br/>class = AP>, fillcolor="#e6843d"] ;
266 -> 267 ;
268 [label=<ActiveIngredient_SOYBEAN OIL &le; 0.067<br/>gini = 0.039<br/>samples = 50<br/>value = [49, 1]<br/>class = AP>, fillcolor="#e6843d"] ;
267 -> 268 ;
269 [label=<ActiveIngredient_RISEDRONATE SODIUM &le; 0.341<br/>gini = 0.04<br/>samples = 49<br/>value = [48, 1]<br/>class = AP>, fillcolor="#e6843d"] ;
268 -> 269 ;
270 [label=<ActiveIngredient_METHOHEXITAL SODIUM &le; 0.553<br/>gini = 0.041<br/>samples = 48<br/>value = [47, 1]<br/>class = AP>, fillcolor="#e6843d"] ;
269 -> 270 ;
271 [label=<Form_SOLUTION;INTRAPERITONEAL &le; 0.455<br/>gini = 0.042<br/>samples = 47<br/>value = [46, 1]<br/>class = AP>, fillcolor="#e6843d"] ;
270 -> 271 ;
272 [label=<ActiveIngredient_LACOSAMIDE &le; 0.742<br/>gini = 0.043<br/>samples = 46<br/>value = [45, 1]<br/>class = AP>, fillcolor="#e6843d"] ;
271 -> 272 ;
273 [label=<SponsorName_KING PHARMS LLC &le; 0.48<br/>gini = 0.043<br/>samples = 45<br/>value = [44, 1]<br/>class = AP>, fillcolor="#e6843d"] ;
272 -> 273 ;
274 [label=<SponsorName_SANDOZ INC &le; 0.668<br/>gini = 0.062<br/>samples = 31<br/>value = [30, 1]<br/>class = AP>, fillcolor="#e68540"] ;
273 -> 274 ;
275 [label=<ActiveIngredient_CHLOROTHIAZIDE SODIUM &le; 0.388<br/>gini = 0.064<br/>samples = 30<br/>value = [29, 1]<br/>class = AP>, fillcolor="#e68540"] ;
274 -> 275 ;
276 [label=<ActiveIngredient_BUPIVACAINE HYDROCHLORIDE; EPINEPHRINE BITARTRATE &le; 0.406<br/>gini = 0.067<br/>samples = 29<br/>value = [28, 1]<br/>class = AP>, fillcolor="#e68640"] ;
275 -> 276 ;
277 [label=<ActiveIngredient_METOCLOPRAMIDE HYDROCHLORIDE &le; 0.472<br/>gini = 0.069<br/>samples = 28<br/>value = [27, 1]<br/>class = AP>, fillcolor="#e68640"] ;
276 -> 277 ;
278 [label=<Form_POWDER;IV (INFUSION) &le; 0.183<br/>gini = 0.074<br/>samples = 26<br/>value = [25, 1]<br/>class = AP>, fillcolor="#e68641"] ;
277 -> 278 ;
279 [label=<SponsorName_CHEPLAPHARM &le; 0.149<br/>gini = 0.077<br/>samples = 25<br/>value = [24, 1]<br/>class = AP>, fillcolor="#e68641"] ;
278 -> 279 ;
280 [label=<SponsorName_NOVARTIS &le; 0.574<br/>gini = 0.08<br/>samples = 24<br/>value = [23, 1]<br/>class = AP>, fillcolor="#e68642"] ;
279 -> 280 ;
281 [label=<SponsorName_SANDOZ CANADA INC &le; 0.184<br/>gini = 0.083<br/>samples = 23<br/>value = [22, 1]<br/>class = AP>, fillcolor="#e68742"] ;
280 -> 281 ;
282 [label=<ActiveIngredient_OSELTAMIVIR PHOSPHATE &le; 0.341<br/>gini = 0.087<br/>samples = 22<br/>value = [21, 1]<br/>class = AP>, fillcolor="#e68742"] ;
281 -> 282 ;
283 [label=<ActiveIngredient_ALFENTANIL HYDROCHLORIDE &le; 0.599<br/>gini = 0.091<br/>samples = 21<br/>value = [20, 1]<br/>class = AP>, fillcolor="#e68743"] ;
282 -> 283 ;
284 [label=<gini = 0.0<br/>samples = 20<br/>value = [20, 0]<br/>class = AP>, fillcolor="#e58139"] ;
283 -> 284 ;
285 [label=<gini = 0.0<br/>samples = 1<br/>value = [0, 1]<br/>class = TA>, fillcolor="#399de5"] ;
283 -> 285 ;
286 [label=<gini = 0.0<br/>samples = 1<br/>value = [1, 0]<br/>class = AP>, fillcolor="#e58139"] ;
282 -> 286 ;
287 [label=<gini = 0.0<br/>samples = 1<br/>value = [1, 0]<br/>class = AP>, fillcolor="#e58139"] ;
281 -> 287 ;
288 [label=<gini = 0.0<br/>samples = 1<br/>value = [1, 0]<br/>class = AP>, fillcolor="#e58139"] ;
280 -> 288 ;
289 [label=<gini = 0.0<br/>samples = 1<br/>value = [1, 0]<br/>class = AP>, fillcolor="#e58139"] ;
279 -> 289 ;
290 [label=<gini = 0.0<br/>samples = 1<br/>value = [1, 0]<br/>class = AP>, fillcolor="#e58139"] ;
278 -> 290 ;
291 [label=<gini = 0.0<br/>samples = 2<br/>value = [2, 0]<br/>class = AP>, fillcolor="#e58139"] ;
277 -> 291 ;
292 [label=<gini = 0.0<br/>samples = 1<br/>value = [1, 0]<br/>class = AP>, fillcolor="#e58139"] ;
276 -> 292 ;
293 [label=<gini = 0.0<br/>samples = 1<br/>value = [1, 0]<br/>class = AP>, fillcolor="#e58139"] ;
275 -> 293 ;
294 [label=<gini = 0.0<br/>samples = 1<br/>value = [1, 0]<br/>class = AP>, fillcolor="#e58139"] ;
274 -> 294 ;
295 [label=<gini = 0.0<br/>samples = 14<br/>value = [14, 0]<br/>class = AP>, fillcolor="#e58139"] ;
273 -> 295 ;
296 [label=<gini = 0.0<br/>samples = 1<br/>value = [1, 0]<br/>class = AP>, fillcolor="#e58139"] ;
272 -> 296 ;
297 [label=<gini = 0.0<br/>samples = 1<br/>value = [1, 0]<br/>class = AP>, fillcolor="#e58139"] ;
271 -> 297 ;
298 [label=<gini = 0.0<br/>samples = 1<br/>value = [1, 0]<br/>class = AP>, fillcolor="#e58139"] ;
270 -> 298 ;
299 [label=<gini = 0.0<br/>samples = 1<br/>value = [1, 0]<br/>class = AP>, fillcolor="#e58139"] ;
269 -> 299 ;
300 [label=<gini = 0.0<br/>samples = 1<br/>value = [1, 0]<br/>class = AP>, fillcolor="#e58139"] ;
268 -> 300 ;
301 [label=<gini = 0.0<br/>samples = 1<br/>value = [1, 0]<br/>class = AP>, fillcolor="#e58139"] ;
267 -> 301 ;
302 [label=<gini = 0.0<br/>samples = 1<br/>value = [1, 0]<br/>class = AP>, fillcolor="#e58139"] ;
266 -> 302 ;
303 [label=<gini = 0.0<br/>samples = 1<br/>value = [1, 0]<br/>class = AP>, fillcolor="#e58139"] ;
265 -> 303 ;
304 [label=<gini = 0.0<br/>samples = 2<br/>value = [2, 0]<br/>class = AP>, fillcolor="#e58139"] ;
264 -> 304 ;
305 [label=<gini = 0.0<br/>samples = 1<br/>value = [0, 1]<br/>class = TA>, fillcolor="#399de5"] ;
263 -> 305 ;
306 [label=<gini = 0.0<br/>samples = 1<br/>value = [1, 0]<br/>class = AP>, fillcolor="#e58139"] ;
262 -> 306 ;
307 [label=<gini = 0.0<br/>samples = 1<br/>value = [1, 0]<br/>class = AP>, fillcolor="#e58139"] ;
261 -> 307 ;
308 [label=<gini = 0.0<br/>samples = 1<br/>value = [1, 0]<br/>class = AP>, fillcolor="#e58139"] ;
260 -> 308 ;
309 [label=<gini = 0.0<br/>samples = 1<br/>value = [1, 0]<br/>class = AP>, fillcolor="#e58139"] ;
259 -> 309 ;
310 [label=<gini = 0.0<br/>samples = 2<br/>value = [0, 2]<br/>class = TA>, fillcolor="#399de5"] ;
258 -> 310 ;
311 [label=<gini = 0.0<br/>samples = 2<br/>value = [2, 0]<br/>class = AP>, fillcolor="#e58139"] ;
257 -> 311 ;
312 [label=<gini = 0.0<br/>samples = 1<br/>value = [1, 0]<br/>class = AP>, fillcolor="#e58139"] ;
256 -> 312 ;
313 [label=<gini = 0.0<br/>samples = 1<br/>value = [1, 0]<br/>class = AP>, fillcolor="#e58139"] ;
255 -> 313 ;
314 [label=<gini = 0.0<br/>samples = 1<br/>value = [1, 0]<br/>class = AP>, fillcolor="#e58139"] ;
254 -> 314 ;
315 [label=<gini = 0.0<br/>samples = 2<br/>value = [2, 0]<br/>class = AP>, fillcolor="#e58139"] ;
253 -> 315 ;
316 [label=<gini = 0.0<br/>samples = 9<br/>value = [9, 0]<br/>class = AP>, fillcolor="#e58139"] ;
252 -> 316 ;
317 [label=<gini = 0.0<br/>samples = 1<br/>value = [1, 0]<br/>class = AP>, fillcolor="#e58139"] ;
251 -> 317 ;
318 [label=<gini = 0.0<br/>samples = 1<br/>value = [1, 0]<br/>class = AP>, fillcolor="#e58139"] ;
250 -> 318 ;
319 [label=<gini = 0.0<br/>samples = 2<br/>value = [2, 0]<br/>class = AP>, fillcolor="#e58139"] ;
249 -> 319 ;
320 [label=<gini = 0.0<br/>samples = 5<br/>value = [5, 0]<br/>class = AP>, fillcolor="#e58139"] ;
248 -> 320 ;
321 [label=<gini = 0.0<br/>samples = 2<br/>value = [2, 0]<br/>class = AP>, fillcolor="#e58139"] ;
247 -> 321 ;
322 [label=<gini = 0.0<br/>samples = 1<br/>value = [1, 0]<br/>class = AP>, fillcolor="#e58139"] ;
246 -> 322 ;
323 [label=<gini = 0.0<br/>samples = 1<br/>value = [1, 0]<br/>class = AP>, fillcolor="#e58139"] ;
245 -> 323 ;
324 [label=<gini = 0.0<br/>samples = 1<br/>value = [1, 0]<br/>class = AP>, fillcolor="#e58139"] ;
244 -> 324 ;
325 [label=<gini = 0.0<br/>samples = 1<br/>value = [1, 0]<br/>class = AP>, fillcolor="#e58139"] ;
243 -> 325 ;
326 [label=<gini = 0.0<br/>samples = 1<br/>value = [1, 0]<br/>class = AP>, fillcolor="#e58139"] ;
242 -> 326 ;
327 [label=<gini = 0.0<br/>samples = 1<br/>value = [1, 0]<br/>class = AP>, fillcolor="#e58139"] ;
241 -> 327 ;
328 [label=<gini = 0.0<br/>samples = 4<br/>value = [4, 0]<br/>class = AP>, fillcolor="#e58139"] ;
240 -> 328 ;
329 [label=<gini = 0.0<br/>samples = 5<br/>value = [5, 0]<br/>class = AP>, fillcolor="#e58139"] ;
239 -> 329 ;
330 [label=<gini = 0.0<br/>samples = 1<br/>value = [1, 0]<br/>class = AP>, fillcolor="#e58139"] ;
238 -> 330 ;
331 [label=<gini = 0.0<br/>samples = 2<br/>value = [2, 0]<br/>class = AP>, fillcolor="#e58139"] ;
237 -> 331 ;
332 [label=<gini = 0.0<br/>samples = 1<br/>value = [1, 0]<br/>class = AP>, fillcolor="#e58139"] ;
236 -> 332 ;
333 [label=<gini = 0.0<br/>samples = 1<br/>value = [0, 1]<br/>class = TA>, fillcolor="#399de5"] ;
235 -> 333 ;
334 [label=<gini = 0.0<br/>samples = 4<br/>value = [4, 0]<br/>class = AP>, fillcolor="#e58139"] ;
234 -> 334 ;
335 [label=<gini = 0.0<br/>samples = 19<br/>value = [19, 0]<br/>class = AP>, fillcolor="#e58139"] ;
233 -> 335 ;
336 [label=<gini = 0.0<br/>samples = 1<br/>value = [1, 0]<br/>class = AP>, fillcolor="#e58139"] ;
232 -> 336 ;
337 [label=<gini = 0.0<br/>samples = 2<br/>value = [2, 0]<br/>class = AP>, fillcolor="#e58139"] ;
231 -> 337 ;
338 [label=<SubmissionNo &le; 31.289<br/>gini = 0.278<br/>samples = 6<br/>value = [1, 5]<br/>class = TA>, fillcolor="#61b1ea"] ;
230 -> 338 ;
339 [label=<gini = 0.0<br/>samples = 5<br/>value = [0, 5]<br/>class = TA>, fillcolor="#399de5"] ;
338 -> 339 ;
340 [label=<gini = 0.0<br/>samples = 1<br/>value = [1, 0]<br/>class = AP>, fillcolor="#e58139"] ;
338 -> 340 ;
341 [label=<gini = 0.0<br/>samples = 1<br/>value = [0, 1]<br/>class = TA>, fillcolor="#399de5"] ;
229 -> 341 ;
342 [label=<gini = 0.0<br/>samples = 2<br/>value = [2, 0]<br/>class = AP>, fillcolor="#e58139"] ;
228 -> 342 ;
343 [label=<gini = 0.0<br/>samples = 2<br/>value = [2, 0]<br/>class = AP>, fillcolor="#e58139"] ;
227 -> 343 ;
344 [label=<gini = 0.0<br/>samples = 6<br/>value = [6, 0]<br/>class = AP>, fillcolor="#e58139"] ;
226 -> 344 ;
345 [label=<gini = 0.0<br/>samples = 4<br/>value = [4, 0]<br/>class = AP>, fillcolor="#e58139"] ;
15 -> 345 ;
346 [label=<gini = 0.0<br/>samples = 25<br/>value = [25, 0]<br/>class = AP>, fillcolor="#e58139"] ;
14 -> 346 ;
347 [label=<gini = 0.0<br/>samples = 5<br/>value = [5, 0]<br/>class = AP>, fillcolor="#e58139"] ;
13 -> 347 ;
348 [label=<gini = 0.0<br/>samples = 19<br/>value = [19, 0]<br/>class = AP>, fillcolor="#e58139"] ;
12 -> 348 ;
349 [label=<gini = 0.0<br/>samples = 135<br/>value = [135, 0]<br/>class = AP>, fillcolor="#e58139"] ;
11 -> 349 ;
350 [label=<gini = 0.0<br/>samples = 7<br/>value = [7, 0]<br/>class = AP>, fillcolor="#e58139"] ;
10 -> 350 ;
351 [label=<gini = 0.0<br/>samples = 5<br/>value = [5, 0]<br/>class = AP>, fillcolor="#e58139"] ;
9 -> 351 ;
352 [label=<gini = 0.0<br/>samples = 17<br/>value = [17, 0]<br/>class = AP>, fillcolor="#e58139"] ;
8 -> 352 ;
353 [label=<gini = 0.0<br/>samples = 67<br/>value = [67, 0]<br/>class = AP>, fillcolor="#e58139"] ;
7 -> 353 ;
354 [label=<gini = 0.0<br/>samples = 104<br/>value = [104, 0]<br/>class = AP>, fillcolor="#e58139"] ;
4 -> 354 ;
355 [label=<Form_SOLUTION;ORAL &le; 0.615<br/>gini = 0.111<br/>samples = 17<br/>value = [16, 1]<br/>class = AP>, fillcolor="#e78945"] ;
3 -> 355 ;
356 [label=<Form_SOLUTION;INJECTION, ORAL, RECTAL &le; 0.335<br/>gini = 0.165<br/>samples = 11<br/>value = [10, 1]<br/>class = AP>, fillcolor="#e88e4d"] ;
355 -> 356 ;
357 [label=<SubmissionNo &le; 15.376<br/>gini = 0.278<br/>samples = 6<br/>value = [5, 1]<br/>class = AP>, fillcolor="#ea9a61"] ;
356 -> 357 ;
358 [label=<gini = 0.0<br/>samples = 3<br/>value = [3, 0]<br/>class = AP>, fillcolor="#e58139"] ;
357 -> 358 ;
359 [label=<Form_INJECTABLE;INJECTION &le; 0.174<br/>gini = 0.444<br/>samples = 3<br/>value = [2, 1]<br/>class = AP>, fillcolor="#f2c09c"] ;
357 -> 359 ;
360 [label=<gini = 0.0<br/>samples = 1<br/>value = [1, 0]<br/>class = AP>, fillcolor="#e58139"] ;
359 -> 360 ;
361 [label=<ActiveIngredient_IOHEXOL &le; 0.169<br/>gini = 0.5<br/>samples = 2<br/>value = [1, 1]<br/>class = AP>, fillcolor="#ffffff"] ;
359 -> 361 ;
362 [label=<gini = 0.0<br/>samples = 1<br/>value = [0, 1]<br/>class = TA>, fillcolor="#399de5"] ;
361 -> 362 ;
363 [label=<gini = 0.0<br/>samples = 1<br/>value = [1, 0]<br/>class = AP>, fillcolor="#e58139"] ;
361 -> 363 ;
364 [label=<gini = 0.0<br/>samples = 5<br/>value = [5, 0]<br/>class = AP>, fillcolor="#e58139"] ;
356 -> 364 ;
365 [label=<gini = 0.0<br/>samples = 6<br/>value = [6, 0]<br/>class = AP>, fillcolor="#e58139"] ;
355 -> 365 ;
366 [label=<ActiveIngredient_NITROGLYCERIN &le; 0.022<br/>gini = 0.103<br/>samples = 6745<br/>value = [6378, 367]<br/>class = AP>, fillcolor="#e68844"] ;
2 -> 366 ;
367 [label=<ActiveIngredient_LAMIVUDINE; STAVUDINE &le; 0.872<br/>gini = 0.102<br/>samples = 6733<br/>value = [6369, 364]<br/>class = AP>, fillcolor="#e68844"] ;
366 -> 367 ;
368 [label=<SponsorName_HIKMA &le; 0.909<br/>gini = 0.101<br/>samples = 6727<br/>value = [6369, 358]<br/>class = AP>, fillcolor="#e68844"] ;
367 -> 368 ;
369 [label=<SponsorName_SUN PHARMA GLOBAL &le; 0.05<br/>gini = 0.102<br/>samples = 6640<br/>value = [6282, 358]<br/>class = AP>, fillcolor="#e68844"] ;
368 -> 369 ;
370 [label=<SponsorName_RANBAXY LABS LTD &le; 0.681<br/>gini = 0.099<br/>samples = 6628<br/>value = [6282, 346]<br/>class = AP>, fillcolor="#e68844"] ;
369 -> 370 ;
371 [label=<ActiveIngredient_INDOCYANINE GREEN &le; 0.439<br/>gini = 0.094<br/>samples = 6608<br/>value = [6280, 328]<br/>class = AP>, fillcolor="#e68843"] ;
370 -> 371 ;
372 [label=<ActiveIngredient_CARBAMAZEPINE &le; 0.959<br/>gini = 0.094<br/>samples = 6604<br/>value = [6279, 325]<br/>class = AP>, fillcolor="#e68843"] ;
371 -> 372 ;
373 [label=<ActiveIngredient_FEXOFENADINE HYDROCHLORIDE &le; 0.883<br/>gini = 0.093<br/>samples = 6588<br/>value = [6266, 322]<br/>class = AP>, fillcolor="#e68743"] ;
372 -> 373 ;
374 [label=<ReviewPriority_STANDARD &le; 0.882<br/>gini = 0.092<br/>samples = 6570<br/>value = [6254, 316]<br/>class = AP>, fillcolor="#e68743"] ;
373 -> 374 ;
375 [label=<ReferenceDrug_1.0 &le; 0.566<br/>gini = 0.151<br/>samples = 3511<br/>value = [3223, 288]<br/>class = AP>, fillcolor="#e78c4b"] ;
374 -> 375 ;
376 [label=<ActiveIngredient_CEFTRIAXONE SODIUM &le; 0.008<br/>gini = 0.189<br/>samples = 2720<br/>value = [2433, 287]<br/>class = AP>, fillcolor="#e89050"] ;
375 -> 376 ;
377 [label=<ActiveIngredient_GALANTAMINE HYDROBROMIDE &le; 0.422<br/>gini = 0.19<br/>samples = 2705<br/>value = [2418, 287]<br/>class = AP>, fillcolor="#e89051"] ;
376 -> 377 ;
378 [label=<Form_TABLET;ORAL &le; 0.639<br/>gini = 0.185<br/>samples = 2694<br/>value = [2416, 278]<br/>class = AP>, fillcolor="#e88f50"] ;
377 -> 378 ;
379 [label=<ActiveIngredient_ARIPIPRAZOLE &le; 0.678<br/>gini = 0.236<br/>samples = 1458<br/>value = [1259, 199]<br/>class = AP>, fillcolor="#e99558"] ;
378 -> 379 ;
380 [label=<Form_SOLUTION; ORAL &le; 0.73<br/>gini = 0.227<br/>samples = 1448<br/>value = [1259, 189]<br/>class = AP>, fillcolor="#e99457"] ;
379 -> 380 ;
381 [label=<ActiveIngredient_LATANOPROST &le; 0.931<br/>gini = 0.223<br/>samples = 1443<br/>value = [1259, 184]<br/>class = AP>, fillcolor="#e99356"] ;
380 -> 381 ;
382 [label=<ActiveIngredient_SIMVASTATIN &le; 0.474<br/>gini = 0.222<br/>samples = 1442<br/>value = [1259, 183]<br/>class = AP>, fillcolor="#e99356"] ;
381 -> 382 ;
383 [label=<SponsorName_HIKMA PHARMS &le; 0.426<br/>gini = 0.217<br/>samples = 1437<br/>value = [1259, 178]<br/>class = AP>, fillcolor="#e99355"] ;
382 -> 383 ;
384 [label=<Form_INJECTABLE; INJECTION &le; 0.197<br/>gini = 0.211<br/>samples = 1431<br/>value = [1259, 172]<br/>class = AP>, fillcolor="#e99254"] ;
383 -> 384 ;
385 [label=<SponsorName_ALPHAPHARM &le; 0.395<br/>gini = 0.201<br/>samples = 1418<br/>value = [1257, 161]<br/>class = AP>, fillcolor="#e89152"] ;
384 -> 385 ;
386 [label=<SponsorName_AUROBINDO PHARMA LTD &le; 0.98<br/>gini = 0.195<br/>samples = 1412<br/>value = [1257, 155]<br/>class = AP>, fillcolor="#e89151"] ;
385 -> 386 ;
387 [label=<SponsorName_FRESENIUS KABI USA &le; 0.906<br/>gini = 0.191<br/>samples = 1408<br/>value = [1257, 151]<br/>class = AP>, fillcolor="#e89051"] ;
386 -> 387 ;
388 [label=<SponsorName_PFIZER &le; 0.7<br/>gini = 0.195<br/>samples = 1378<br/>value = [1227, 151]<br/>class = AP>, fillcolor="#e89151"] ;
387 -> 388 ;
389 [label=<ActiveIngredient_EFAVIRENZ &le; 0.779<br/>gini = 0.199<br/>samples = 1350<br/>value = [1199, 151]<br/>class = AP>, fillcolor="#e89152"] ;
388 -> 389 ;
390 [label=<ReviewPriority_UNKNOWN &le; 0.116<br/>gini = 0.196<br/>samples = 1347<br/>value = [1199, 148]<br/>class = AP>, fillcolor="#e89151"] ;
389 -> 390 ;
391 [label=<SponsorName_PHARMACIA AND UPJOHN &le; 0.506<br/>gini = 0.199<br/>samples = 1320<br/>value = [1172, 148]<br/>class = AP>, fillcolor="#e89152"] ;
390 -> 391 ;
392 [label=<ActiveIngredient_LAMIVUDINE; ZIDOVUDINE; EFAVIRENZ &le; 0.659<br/>gini = 0.201<br/>samples = 1309<br/>value = [1161, 148]<br/>class = AP>, fillcolor="#e89152"] ;
391 -> 392 ;
393 [label=<ActiveIngredient_LAMOTRIGINE &le; 0.211<br/>gini = 0.2<br/>samples = 1308<br/>value = [1161, 147]<br/>class = AP>, fillcolor="#e89152"] ;
392 -> 393 ;
394 [label=<ApplType_ANDA &le; 0.224<br/>gini = 0.195<br/>samples = 1303<br/>value = [1160, 143]<br/>class = AP>, fillcolor="#e89151"] ;
393 -> 394 ;
395 [label=<ApplType_NDA &le; 0.616<br/>gini = 0.04<br/>samples = 388<br/>value = [380, 8]<br/>class = AP>, fillcolor="#e6843d"] ;
394 -> 395 ;
396 [label=<gini = 0.0<br/>samples = 51<br/>value = [51, 0]<br/>class = AP>, fillcolor="#e58139"] ;
395 -> 396 ;
397 [label=<SponsorName_LILLY &le; 0.55<br/>gini = 0.046<br/>samples = 337<br/>value = [329, 8]<br/>class = AP>, fillcolor="#e6843e"] ;
395 -> 397 ;
398 [label=<SponsorName_GD SEARLE LLC &le; 0.176<br/>gini = 0.048<br/>samples = 323<br/>value = [315, 8]<br/>class = AP>, fillcolor="#e6843e"] ;
397 -> 398 ;
399 [label=<SponsorName_UCB INC &le; 0.008<br/>gini = 0.049<br/>samples = 318<br/>value = [310, 8]<br/>class = AP>, fillcolor="#e6843e"] ;
398 -> 399 ;
400 [label=<ActiveIngredient_AMINO ACIDS; MAGNESIUM ACETATE; PHOSPHORIC ACID; POTASSIUM ACETATE; POTASSIUM CHLORIDE; SODIUM ACETATE &le; 0.182<br/>gini = 0.049<br/>samples = 317<br/>value = [309, 8]<br/>class = AP>, fillcolor="#e6843e"] ;
399 -> 400 ;
401 [label=<SponsorName_MERCK &le; 0.927<br/>gini = 0.05<br/>samples = 311<br/>value = [303, 8]<br/>class = AP>, fillcolor="#e6843e"] ;
400 -> 401 ;
402 [label=<SponsorName_HOSPIRA INC &le; 0.147<br/>gini = 0.051<br/>samples = 307<br/>value = [299, 8]<br/>class = AP>, fillcolor="#e6843e"] ;
401 -> 402 ;
403 [label=<SponsorName_DR REDDYS &le; 0.887<br/>gini = 0.051<br/>samples = 306<br/>value = [298, 8]<br/>class = AP>, fillcolor="#e6843e"] ;
402 -> 403 ;
404 [label=<SponsorName_NOVARTIS &le; 0.319<br/>gini = 0.051<br/>samples = 303<br/>value = [295, 8]<br/>class = AP>, fillcolor="#e6843e"] ;
403 -> 404 ;
405 [label=<ActiveIngredient_STAVUDINE; LAMIVUDINE; EFAVIRENZ &le; 0.763<br/>gini = 0.053<br/>samples = 293<br/>value = [285, 8]<br/>class = AP>, fillcolor="#e6853f"] ;
404 -> 405 ;
406 [label=<SponsorName_ICU MEDICAL INC &le; 0.642<br/>gini = 0.047<br/>samples = 292<br/>value = [285, 7]<br/>class = AP>, fillcolor="#e6843e"] ;
405 -> 406 ;
407 [label=<SponsorName_ORTHO MCNEIL PHARM &le; 0.008<br/>gini = 0.048<br/>samples = 282<br/>value = [275, 7]<br/>class = AP>, fillcolor="#e6843e"] ;
406 -> 407 ;
408 [label=<ActiveIngredient_SUNITINIB MALATE &le; 0.541<br/>gini = 0.049<br/>samples = 281<br/>value = [274, 7]<br/>class = AP>, fillcolor="#e6843e"] ;
407 -> 408 ;
409 [label=<ActiveIngredient_SULFAMETHOXAZOLE; TRIMETHOPRIM &le; 0.115<br/>gini = 0.049<br/>samples = 279<br/>value = [272, 7]<br/>class = AP>, fillcolor="#e6843e"] ;
408 -> 409 ;
410 [label=<SponsorName_ROCHE &le; 0.052<br/>gini = 0.051<br/>samples = 268<br/>value = [261, 7]<br/>class = AP>, fillcolor="#e6843e"] ;
409 -> 410 ;
411 [label=<Form_GRANULE, EFFERVESCENT;ORAL &le; 0.092<br/>gini = 0.052<br/>samples = 263<br/>value = [256, 7]<br/>class = AP>, fillcolor="#e6843e"] ;
410 -> 411 ;
412 [label=<Form_SUSPENSION;ORAL &le; 0.539<br/>gini = 0.052<br/>samples = 262<br/>value = [255, 7]<br/>class = AP>, fillcolor="#e6843e"] ;
411 -> 412 ;
413 [label=<SponsorName_GE HEALTHCARE &le; 0.605<br/>gini = 0.053<br/>samples = 259<br/>value = [252, 7]<br/>class = AP>, fillcolor="#e6843e"] ;
412 -> 413 ;
414 [label=<ActiveIngredient_LEVONORDEFRIN; MEPIVACAINE HYDROCHLORIDE &le; 0.744<br/>gini = 0.056<br/>samples = 245<br/>value = [238, 7]<br/>class = AP>, fillcolor="#e6853f"] ;
413 -> 414 ;
415 [label=<SponsorName_SANOFI AVENTIS US &le; 0.632<br/>gini = 0.056<br/>samples = 244<br/>value = [237, 7]<br/>class = AP>, fillcolor="#e6853f"] ;
414 -> 415 ;
416 [label=<ActiveIngredient_FLUPHENAZINE HYDROCHLORIDE &le; 0.502<br/>gini = 0.058<br/>samples = 234<br/>value = [227, 7]<br/>class = AP>, fillcolor="#e6853f"] ;
415 -> 416 ;
417 [label=<ActiveIngredient_CALCIUM CHLORIDE; DEXTROSE; MAGNESIUM CHLORIDE; SODIUM CHLORIDE; SODIUM LACTATE &le; 0.45<br/>gini = 0.058<br/>samples = 233<br/>value = [226, 7]<br/>class = AP>, fillcolor="#e6853f"] ;
416 -> 417 ;
418 [label=<ActiveIngredient_TRIHEXYPHENIDYL HYDROCHLORIDE &le; 0.539<br/>gini = 0.061<br/>samples = 221<br/>value = [214, 7]<br/>class = AP>, fillcolor="#e6853f"] ;
417 -> 418 ;
419 [label=<ActiveIngredient_TECHNETIUM TC-99M SODIUM PERTECHNETATE GENERATOR &le; 0.073<br/>gini = 0.062<br/>samples = 220<br/>value = [213, 7]<br/>class = AP>, fillcolor="#e68540"] ;
418 -> 419 ;
420 [label=<SponsorName_MONARCH PHARMS &le; 0.821<br/>gini = 0.062<br/>samples = 218<br/>value = [211, 7]<br/>class = AP>, fillcolor="#e68540"] ;
419 -> 420 ;
421 [label=<ActiveIngredient_PROCAINE HYDROCHLORIDE; TETRACYCLINE HYDROCHLORIDE &le; 0.19<br/>gini = 0.063<br/>samples = 216<br/>value = [209, 7]<br/>class = AP>, fillcolor="#e68540"] ;
420 -> 421 ;
422 [label=<SponsorName_BRISTOL MYERS SQUIBB &le; 0.9<br/>gini = 0.064<br/>samples = 213<br/>value = [206, 7]<br/>class = AP>, fillcolor="#e68540"] ;
421 -> 422 ;
423 [label=<SponsorName_COSETTE &le; 0.274<br/>gini = 0.066<br/>samples = 206<br/>value = [199, 7]<br/>class = AP>, fillcolor="#e68540"] ;
422 -> 423 ;
424 [label=<ActiveIngredient_LAMIVUDINE; ZIDOVUDINE; NEVIRAPINE &le; 0.389<br/>gini = 0.067<br/>samples = 201<br/>value = [194, 7]<br/>class = AP>, fillcolor="#e68640"] ;
423 -> 424 ;
425 [label=<SponsorName_XANODYNE PHARM &le; 0.3<br/>gini = 0.049<br/>samples = 199<br/>value = [194, 5]<br/>class = AP>, fillcolor="#e6843e"] ;
424 -> 425 ;
426 [label=<ActiveIngredient_DOPAMINE HYDROCHLORIDE &le; 0.866<br/>gini = 0.05<br/>samples = 194<br/>value = [189, 5]<br/>class = AP>, fillcolor="#e6843e"] ;
425 -> 426 ;
427 [label=<ReviewPriority_UNKOWN &le; 0.827<br/>gini = 0.052<br/>samples = 189<br/>value = [184, 5]<br/>class = AP>, fillcolor="#e6843e"] ;
426 -> 427 ;
428 [label=<Form_AEROSOL, METERED;INHALATION &le; 0.504<br/>gini = 0.198<br/>samples = 45<br/>value = [40, 5]<br/>class = AP>, fillcolor="#e89152"] ;
427 -> 428 ;
429 [label=<Form_INJECTABLE;INJECTION &le; 0.537<br/>gini = 0.219<br/>samples = 40<br/>value = [35, 5]<br/>class = AP>, fillcolor="#e99355"] ;
428 -> 429 ;
430 [label=<SponsorName_STRIDES ACROLAB &le; 0.341<br/>gini = 0.311<br/>samples = 26<br/>value = [21, 5]<br/>class = AP>, fillcolor="#eb9f68"] ;
429 -> 430 ;
431 [label=<ActiveIngredient_MONOBENZONE &le; 0.043<br/>gini = 0.269<br/>samples = 25<br/>value = [21, 4]<br/>class = AP>, fillcolor="#ea995f"] ;
430 -> 431 ;
432 [label=<SponsorName_CIPLA LIMITED &le; 0.111<br/>gini = 0.278<br/>samples = 24<br/>value = [20, 4]<br/>class = AP>, fillcolor="#ea9a61"] ;
431 -> 432 ;
433 [label=<ActiveIngredient_FLURAZEPAM HYDROCHLORIDE &le; 0.665<br/>gini = 0.165<br/>samples = 22<br/>value = [20, 2]<br/>class = AP>, fillcolor="#e88e4d"] ;
432 -> 433 ;
434 [label=<Form_CAPSULE;ORAL &le; 0.02<br/>gini = 0.172<br/>samples = 21<br/>value = [19, 2]<br/>class = AP>, fillcolor="#e88e4e"] ;
433 -> 434 ;
435 [label=<Form_INSERT, EXTENDED RELEASE;INTRAUTERINE &le; 0.224<br/>gini = 0.26<br/>samples = 13<br/>value = [11, 2]<br/>class = AP>, fillcolor="#ea985d"] ;
434 -> 435 ;
436 [label=<ActiveIngredient_VALACYCLOVIR HYDROCHLORIDE &le; 0.508<br/>gini = 0.278<br/>samples = 12<br/>value = [10, 2]<br/>class = AP>, fillcolor="#ea9a61"] ;
435 -> 436 ;
437 [label=<Form_SOLUTION;ORAL &le; 0.091<br/>gini = 0.298<br/>samples = 11<br/>value = [9, 2]<br/>class = AP>, fillcolor="#eb9d65"] ;
436 -> 437 ;
438 [label=<SponsorName_ABBOTT &le; 0.678<br/>gini = 0.346<br/>samples = 9<br/>value = [7, 2]<br/>class = AP>, fillcolor="#eca572"] ;
437 -> 438 ;
439 [label=<SponsorName_AKORN &le; 0.356<br/>gini = 0.375<br/>samples = 8<br/>value = [6, 2]<br/>class = AP>, fillcolor="#eeab7b"] ;
438 -> 439 ;
440 [label=<SponsorName_AUROBINDO PHARMA &le; 0.145<br/>gini = 0.408<br/>samples = 7<br/>value = [5, 2]<br/>class = AP>, fillcolor="#efb388"] ;
439 -> 440 ;
441 [label=<ActiveIngredient_IPODATE CALCIUM &le; 0.555<br/>gini = 0.278<br/>samples = 6<br/>value = [5, 1]<br/>class = AP>, fillcolor="#ea9a61"] ;
440 -> 441 ;
442 [label=<Form_SOLUTION/DROPS;OPHTHALMIC &le; 0.479<br/>gini = 0.32<br/>samples = 5<br/>value = [4, 1]<br/>class = AP>, fillcolor="#eca06a"] ;
441 -> 442 ;
443 [label=<SponsorName_HOSPIRA &le; 0.155<br/>gini = 0.375<br/>samples = 4<br/>value = [3, 1]<br/>class = AP>, fillcolor="#eeab7b"] ;
442 -> 443 ;
444 [label=<SponsorName_US ARMY &le; 0.23<br/>gini = 0.5<br/>samples = 2<br/>value = [1, 1]<br/>class = AP>, fillcolor="#ffffff"] ;
443 -> 444 ;
445 [label=<gini = 0.0<br/>samples = 1<br/>value = [0, 1]<br/>class = TA>, fillcolor="#399de5"] ;
444 -> 445 ;
446 [label=<gini = 0.0<br/>samples = 1<br/>value = [1, 0]<br/>class = AP>, fillcolor="#e58139"] ;
444 -> 446 ;
447 [label=<gini = 0.0<br/>samples = 2<br/>value = [2, 0]<br/>class = AP>, fillcolor="#e58139"] ;
443 -> 447 ;
448 [label=<gini = 0.0<br/>samples = 1<br/>value = [1, 0]<br/>class = AP>, fillcolor="#e58139"] ;
442 -> 448 ;
449 [label=<gini = 0.0<br/>samples = 1<br/>value = [1, 0]<br/>class = AP>, fillcolor="#e58139"] ;
441 -> 449 ;
450 [label=<gini = 0.0<br/>samples = 1<br/>value = [0, 1]<br/>class = TA>, fillcolor="#399de5"] ;
440 -> 450 ;
451 [label=<gini = 0.0<br/>samples = 1<br/>value = [1, 0]<br/>class = AP>, fillcolor="#e58139"] ;
439 -> 451 ;
452 [label=<gini = 0.0<br/>samples = 1<br/>value = [1, 0]<br/>class = AP>, fillcolor="#e58139"] ;
438 -> 452 ;
453 [label=<gini = 0.0<br/>samples = 2<br/>value = [2, 0]<br/>class = AP>, fillcolor="#e58139"] ;
437 -> 453 ;
454 [label=<gini = 0.0<br/>samples = 1<br/>value = [1, 0]<br/>class = AP>, fillcolor="#e58139"] ;
436 -> 454 ;
455 [label=<gini = 0.0<br/>samples = 1<br/>value = [1, 0]<br/>class = AP>, fillcolor="#e58139"] ;
435 -> 455 ;
456 [label=<gini = 0.0<br/>samples = 8<br/>value = [8, 0]<br/>class = AP>, fillcolor="#e58139"] ;
434 -> 456 ;
457 [label=<gini = 0.0<br/>samples = 1<br/>value = [1, 0]<br/>class = AP>, fillcolor="#e58139"] ;
433 -> 457 ;
458 [label=<gini = 0.0<br/>samples = 2<br/>value = [0, 2]<br/>class = TA>, fillcolor="#399de5"] ;
432 -> 458 ;
459 [label=<gini = 0.0<br/>samples = 1<br/>value = [1, 0]<br/>class = AP>, fillcolor="#e58139"] ;
431 -> 459 ;
460 [label=<gini = 0.0<br/>samples = 1<br/>value = [0, 1]<br/>class = TA>, fillcolor="#399de5"] ;
430 -> 460 ;
461 [label=<gini = 0.0<br/>samples = 14<br/>value = [14, 0]<br/>class = AP>, fillcolor="#e58139"] ;
429 -> 461 ;
462 [label=<gini = 0.0<br/>samples = 5<br/>value = [5, 0]<br/>class = AP>, fillcolor="#e58139"] ;
428 -> 462 ;
463 [label=<gini = 0.0<br/>samples = 144<br/>value = [144, 0]<br/>class = AP>, fillcolor="#e58139"] ;
427 -> 463 ;
464 [label=<gini = 0.0<br/>samples = 5<br/>value = [5, 0]<br/>class = AP>, fillcolor="#e58139"] ;
426 -> 464 ;
465 [label=<gini = 0.0<br/>samples = 5<br/>value = [5, 0]<br/>class = AP>, fillcolor="#e58139"] ;
425 -> 465 ;
466 [label=<gini = 0.0<br/>samples = 2<br/>value = [0, 2]<br/>class = TA>, fillcolor="#399de5"] ;
424 -> 466 ;
467 [label=<gini = 0.0<br/>samples = 5<br/>value = [5, 0]<br/>class = AP>, fillcolor="#e58139"] ;
423 -> 467 ;
468 [label=<gini = 0.0<br/>samples = 7<br/>value = [7, 0]<br/>class = AP>, fillcolor="#e58139"] ;
422 -> 468 ;
469 [label=<gini = 0.0<br/>samples = 3<br/>value = [3, 0]<br/>class = AP>, fillcolor="#e58139"] ;
421 -> 469 ;
470 [label=<gini = 0.0<br/>samples = 2<br/>value = [2, 0]<br/>class = AP>, fillcolor="#e58139"] ;
420 -> 470 ;
471 [label=<gini = 0.0<br/>samples = 2<br/>value = [2, 0]<br/>class = AP>, fillcolor="#e58139"] ;
419 -> 471 ;
472 [label=<gini = 0.0<br/>samples = 1<br/>value = [1, 0]<br/>class = AP>, fillcolor="#e58139"] ;
418 -> 472 ;
473 [label=<gini = 0.0<br/>samples = 12<br/>value = [12, 0]<br/>class = AP>, fillcolor="#e58139"] ;
417 -> 473 ;
474 [label=<gini = 0.0<br/>samples = 1<br/>value = [1, 0]<br/>class = AP>, fillcolor="#e58139"] ;
416 -> 474 ;
475 [label=<gini = 0.0<br/>samples = 10<br/>value = [10, 0]<br/>class = AP>, fillcolor="#e58139"] ;
415 -> 475 ;
476 [label=<gini = 0.0<br/>samples = 1<br/>value = [1, 0]<br/>class = AP>, fillcolor="#e58139"] ;
414 -> 476 ;
477 [label=<gini = 0.0<br/>samples = 14<br/>value = [14, 0]<br/>class = AP>, fillcolor="#e58139"] ;
413 -> 477 ;
478 [label=<gini = 0.0<br/>samples = 3<br/>value = [3, 0]<br/>class = AP>, fillcolor="#e58139"] ;
412 -> 478 ;
479 [label=<gini = 0.0<br/>samples = 1<br/>value = [1, 0]<br/>class = AP>, fillcolor="#e58139"] ;
411 -> 479 ;
480 [label=<gini = 0.0<br/>samples = 5<br/>value = [5, 0]<br/>class = AP>, fillcolor="#e58139"] ;
410 -> 480 ;
481 [label=<gini = 0.0<br/>samples = 11<br/>value = [11, 0]<br/>class = AP>, fillcolor="#e58139"] ;
409 -> 481 ;
482 [label=<gini = 0.0<br/>samples = 2<br/>value = [2, 0]<br/>class = AP>, fillcolor="#e58139"] ;
408 -> 482 ;
483 [label=<gini = 0.0<br/>samples = 1<br/>value = [1, 0]<br/>class = AP>, fillcolor="#e58139"] ;
407 -> 483 ;
484 [label=<gini = 0.0<br/>samples = 10<br/>value = [10, 0]<br/>class = AP>, fillcolor="#e58139"] ;
406 -> 484 ;
485 [label=<gini = 0.0<br/>samples = 1<br/>value = [0, 1]<br/>class = TA>, fillcolor="#399de5"] ;
405 -> 485 ;
486 [label=<gini = 0.0<br/>samples = 10<br/>value = [10, 0]<br/>class = AP>, fillcolor="#e58139"] ;
404 -> 486 ;
487 [label=<gini = 0.0<br/>samples = 3<br/>value = [3, 0]<br/>class = AP>, fillcolor="#e58139"] ;
403 -> 487 ;
488 [label=<gini = 0.0<br/>samples = 1<br/>value = [1, 0]<br/>class = AP>, fillcolor="#e58139"] ;
402 -> 488 ;
489 [label=<gini = 0.0<br/>samples = 4<br/>value = [4, 0]<br/>class = AP>, fillcolor="#e58139"] ;
401 -> 489 ;
490 [label=<gini = 0.0<br/>samples = 6<br/>value = [6, 0]<br/>class = AP>, fillcolor="#e58139"] ;
400 -> 490 ;
491 [label=<gini = 0.0<br/>samples = 1<br/>value = [1, 0]<br/>class = AP>, fillcolor="#e58139"] ;
399 -> 491 ;
492 [label=<gini = 0.0<br/>samples = 5<br/>value = [5, 0]<br/>class = AP>, fillcolor="#e58139"] ;
398 -> 492 ;
493 [label=<gini = 0.0<br/>samples = 14<br/>value = [14, 0]<br/>class = AP>, fillcolor="#e58139"] ;
397 -> 493 ;
494 [label=<SponsorName_BEDFORD LABS &le; 0.526<br/>gini = 0.252<br/>samples = 915<br/>value = [780, 135]<br/>class = AP>, fillcolor="#ea975b"] ;
394 -> 494 ;
495 [label=<Form_LOTION;TOPICAL &le; 0.412<br/>gini = 0.248<br/>samples = 912<br/>value = [780, 132]<br/>class = AP>, fillcolor="#e9965b"] ;
494 -> 495 ;
496 [label=<ActiveIngredient_CIPROFLOXACIN &le; 0.02<br/>gini = 0.249<br/>samples = 907<br/>value = [775, 132]<br/>class = AP>, fillcolor="#e9965b"] ;
495 -> 496 ;
497 [label=<SponsorName_ANDRX PHARM &le; 0.925<br/>gini = 0.246<br/>samples = 904<br/>value = [774, 130]<br/>class = AP>, fillcolor="#e9965a"] ;
496 -> 497 ;
498 [label=<SponsorName_CARACO &le; 0.753<br/>gini = 0.245<br/>samples = 903<br/>value = [774, 129]<br/>class = AP>, fillcolor="#e9965a"] ;
497 -> 498 ;
499 [label=<ActiveIngredient_MIDAZOLAM HYDROCHLORIDE &le; 0.276<br/>gini = 0.238<br/>samples = 898<br/>value = [774, 124]<br/>class = AP>, fillcolor="#e99559"] ;
498 -> 499 ;
500 [label=<Form_FOR SOLUTION;ORAL &le; 0.772<br/>gini = 0.237<br/>samples = 896<br/>value = [773, 123]<br/>class = AP>, fillcolor="#e99559"] ;
499 -> 500 ;
501 [label=<ActiveIngredient_AMPICILLIN SODIUM &le; 0.893<br/>gini = 0.238<br/>samples = 892<br/>value = [769, 123]<br/>class = AP>, fillcolor="#e99559"] ;
500 -> 501 ;
502 [label=<ActiveIngredient_FAMOTIDINE &le; 0.781<br/>gini = 0.239<br/>samples = 888<br/>value = [765, 123]<br/>class = AP>, fillcolor="#e99559"] ;
501 -> 502 ;
503 [label=<SponsorName_MATRIX LABS &le; 0.474<br/>gini = 0.232<br/>samples = 882<br/>value = [764, 118]<br/>class = AP>, fillcolor="#e99458"] ;
502 -> 503 ;
504 [label=<SponsorName_HIKMA INTL PHARMS &le; 0.837<br/>gini = 0.229<br/>samples = 880<br/>value = [764, 116]<br/>class = AP>, fillcolor="#e99457"] ;
503 -> 504 ;
505 [label=<SponsorName_EMCURE PHARMA &le; 0.411<br/>gini = 0.23<br/>samples = 873<br/>value = [757, 116]<br/>class = AP>, fillcolor="#e99457"] ;
504 -> 505 ;
506 [label=<ActiveIngredient_DOXEPIN HYDROCHLORIDE &le; 0.482<br/>gini = 0.222<br/>samples = 867<br/>value = [757, 110]<br/>class = AP>, fillcolor="#e99356"] ;
505 -> 506 ;
507 [label=<ActiveIngredient_TOLTERODINE TARTRATE &le; 0.833<br/>gini = 0.224<br/>samples = 858<br/>value = [748, 110]<br/>class = AP>, fillcolor="#e99456"] ;
506 -> 507 ;
508 [label=<Form_CAPSULE; ORAL &le; 0.752<br/>gini = 0.217<br/>samples = 854<br/>value = [748, 106]<br/>class = AP>, fillcolor="#e99355"] ;
507 -> 508 ;
509 [label=<SponsorName_COBALT LABS INC &le; 0.534<br/>gini = 0.205<br/>samples = 844<br/>value = [746, 98]<br/>class = AP>, fillcolor="#e89253"] ;
508 -> 509 ;
510 [label=<Form_Tablet; Oral &le; 0.958<br/>gini = 0.204<br/>samples = 843<br/>value = [746, 97]<br/>class = AP>, fillcolor="#e89153"] ;
509 -> 510 ;
511 [label=<ActiveIngredient_ISOSORBIDE MONONITRATE &le; 0.954<br/>gini = 0.199<br/>samples = 840<br/>value = [746, 94]<br/>class = AP>, fillcolor="#e89152"] ;
510 -> 511 ;
512 [label=<ActiveIngredient_OXALIPLATIN &le; 0.498<br/>gini = 0.2<br/>samples = 834<br/>value = [740, 94]<br/>class = AP>, fillcolor="#e89152"] ;
511 -> 512 ;
513 [label=<ActiveIngredient_SUMATRIPTAN SUCCINATE &le; 0.081<br/>gini = 0.197<br/>samples = 832<br/>value = [740, 92]<br/>class = AP>, fillcolor="#e89152"] ;
512 -> 513 ;
514 [label=<SponsorName_WATSON LABS TEVA &le; 0.217<br/>gini = 0.188<br/>samples = 827<br/>value = [740, 87]<br/>class = AP>, fillcolor="#e89050"] ;
513 -> 514 ;
515 [label=<SponsorName_LEK PHARM &le; 0.004<br/>gini = 0.187<br/>samples = 824<br/>value = [738, 86]<br/>class = AP>, fillcolor="#e89050"] ;
514 -> 515 ;
516 [label=<Form_Solution; Oral &le; 0.819<br/>gini = 0.185<br/>samples = 823<br/>value = [738, 85]<br/>class = AP>, fillcolor="#e89050"] ;
515 -> 516 ;
517 [label=<SponsorName_ROXANE &le; 0.744<br/>gini = 0.183<br/>samples = 822<br/>value = [738, 84]<br/>class = AP>, fillcolor="#e88f50"] ;
516 -> 517 ;
518 [label=<ActiveIngredient_NYSTATIN &le; 0.554<br/>gini = 0.178<br/>samples = 818<br/>value = [737, 81]<br/>class = AP>, fillcolor="#e88f4f"] ;
517 -> 518 ;
519 [label=<ActiveIngredient_FLUCONAZOLE &le; 0.857<br/>gini = 0.18<br/>samples = 811<br/>value = [730, 81]<br/>class = AP>, fillcolor="#e88f4f"] ;
518 -> 519 ;
520 [label=<SponsorName_MYLAN &le; 0.33<br/>gini = 0.177<br/>samples = 807<br/>value = [728, 79]<br/>class = AP>, fillcolor="#e88f4e"] ;
519 -> 520 ;
521 [label=<SponsorName_INVAGEN PHARMS &le; 0.415<br/>gini = 0.166<br/>samples = 789<br/>value = [717, 72]<br/>class = AP>, fillcolor="#e88e4d"] ;
520 -> 521 ;
522 [label=<SponsorName_PUREPAC PHARM &le; 0.319<br/>gini = 0.162<br/>samples = 787<br/>value = [717, 70]<br/>class = AP>, fillcolor="#e88d4c"] ;
521 -> 522 ;
523 [label=<ActiveIngredient_DILTIAZEM HYDROCHLORIDE &le; 0.17<br/>gini = 0.16<br/>samples = 786<br/>value = [717, 69]<br/>class = AP>, fillcolor="#e88d4c"] ;
522 -> 523 ;
524 [label=<SponsorName_RISING &le; 0.955<br/>gini = 0.162<br/>samples = 777<br/>value = [708, 69]<br/>class = AP>, fillcolor="#e88d4c"] ;
523 -> 524 ;
525 [label=<Form_LIQUID;INHALATION &le; 0.08<br/>gini = 0.164<br/>samples = 764<br/>value = [695, 69]<br/>class = AP>, fillcolor="#e88e4d"] ;
524 -> 525 ;
526 [label=<Form_Tablet, Extended Release; Oral &le; 0.482<br/>gini = 0.165<br/>samples = 759<br/>value = [690, 69]<br/>class = AP>, fillcolor="#e88e4d"] ;
525 -> 526 ;
527 [label=<SponsorName_US ANTIBIOTICS &le; 0.4<br/>gini = 0.163<br/>samples = 758<br/>value = [690, 68]<br/>class = AP>, fillcolor="#e88d4d"] ;
526 -> 527 ;
528 [label=<ActiveIngredient_DICLOXACILLIN SODIUM &le; 0.685<br/>gini = 0.164<br/>samples = 754<br/>value = [686, 68]<br/>class = AP>, fillcolor="#e88d4d"] ;
527 -> 528 ;
529 [label=<ActiveIngredient_ATOMOXETINE HYDROCHLORIDE &le; 0.154<br/>gini = 0.164<br/>samples = 752<br/>value = [684, 68]<br/>class = AP>, fillcolor="#e88e4d"] ;
528 -> 529 ;
530 [label=<ActiveIngredient_LAMIVUDINE &le; 0.049<br/>gini = 0.153<br/>samples = 745<br/>value = [683, 62]<br/>class = AP>, fillcolor="#e78c4b"] ;
529 -> 530 ;
531 [label=<Form_TABLET, EXTENDED RELEASE;ORAL &le; 0.616<br/>gini = 0.146<br/>samples = 742<br/>value = [683, 59]<br/>class = AP>, fillcolor="#e78c4a"] ;
530 -> 531 ;
532 [label=<ActiveIngredient_CEFOTAXIME SODIUM &le; 0.133<br/>gini = 0.154<br/>samples = 689<br/>value = [631, 58]<br/>class = AP>, fillcolor="#e78d4b"] ;
531 -> 532 ;
533 [label=<Form_SYRUP;ORAL &le; 0.295<br/>gini = 0.155<br/>samples = 687<br/>value = [629, 58]<br/>class = AP>, fillcolor="#e78d4b"] ;
532 -> 533 ;
534 [label=<SponsorName_ZYDUS PHARMS USA &le; 0.522<br/>gini = 0.156<br/>samples = 679<br/>value = [621, 58]<br/>class = AP>, fillcolor="#e78d4b"] ;
533 -> 534 ;
535 [label=<SponsorName_PLD ACQUISITIONS LLC &le; 0.808<br/>gini = 0.154<br/>samples = 676<br/>value = [619, 57]<br/>class = AP>, fillcolor="#e78d4b"] ;
534 -> 535 ;
536 [label=<SponsorName_WOCKHARDT &le; 0.134<br/>gini = 0.152<br/>samples = 675<br/>value = [619, 56]<br/>class = AP>, fillcolor="#e78c4b"] ;
535 -> 536 ;
537 [label=<Form_CAPSULE, DELAYED REL PELLETS;ORAL &le; 0.051<br/>gini = 0.15<br/>samples = 673<br/>value = [618, 55]<br/>class = AP>, fillcolor="#e78c4b"] ;
536 -> 537 ;
538 [label=<ActiveIngredient_LACTULOSE &le; 0.479<br/>gini = 0.146<br/>samples = 657<br/>value = [605, 52]<br/>class = AP>, fillcolor="#e78c4a"] ;
537 -> 538 ;
539 [label=<ActiveIngredient_DOXYCYCLINE &le; 0.711<br/>gini = 0.147<br/>samples = 652<br/>value = [600, 52]<br/>class = AP>, fillcolor="#e78c4a"] ;
538 -> 539 ;
540 [label=<Form_TABLET, DELAYED RELEASE;ORAL &le; 0.422<br/>gini = 0.148<br/>samples = 647<br/>value = [595, 52]<br/>class = AP>, fillcolor="#e78c4a"] ;
539 -> 540 ;
541 [label=<SponsorName_WATSON LABS &le; 0.801<br/>gini = 0.15<br/>samples = 637<br/>value = [585, 52]<br/>class = AP>, fillcolor="#e78c4b"] ;
540 -> 541 ;
542 [label=<ActiveIngredient_OXAZEPAM &le; 0.295<br/>gini = 0.139<br/>samples = 610<br/>value = [564, 46]<br/>class = AP>, fillcolor="#e78b49"] ;
541 -> 542 ;
543 [label=<SponsorName_APNAR PHARMA LP &le; 0.622<br/>gini = 0.141<br/>samples = 604<br/>value = [558, 46]<br/>class = AP>, fillcolor="#e78b49"] ;
542 -> 543 ;
544 [label=<ActiveIngredient_PRAVASTATIN SODIUM &le; 0.558<br/>gini = 0.142<br/>samples = 598<br/>value = [552, 46]<br/>class = AP>, fillcolor="#e78c49"] ;
543 -> 544 ;
545 [label=<SponsorName_EPIC PHARMA &le; 0.187<br/>gini = 0.139<br/>samples = 597<br/>value = [552, 45]<br/>class = AP>, fillcolor="#e78b49"] ;
544 -> 545 ;
546 [label=<ActiveIngredient_NORTRIPTYLINE HYDROCHLORIDE &le; 0.973<br/>gini = 0.141<br/>samples = 591<br/>value = [546, 45]<br/>class = AP>, fillcolor="#e78b49"] ;
545 -> 546 ;
547 [label=<Form_INJECTABLE;INJECTION &le; 0.577<br/>gini = 0.143<br/>samples = 581<br/>value = [536, 45]<br/>class = AP>, fillcolor="#e78c4a"] ;
546 -> 547 ;
548 [label=<Form_TROCHE/LOZENGE;TRANSMUCOSAL &le; 0.927<br/>gini = 0.194<br/>samples = 386<br/>value = [344, 42]<br/>class = AP>, fillcolor="#e89051"] ;
547 -> 548 ;
549 [label=<Form_CAPSULE, EXTENDED RELEASE;ORAL &le; 0.502<br/>gini = 0.195<br/>samples = 383<br/>value = [341, 42]<br/>class = AP>, fillcolor="#e89151"] ;
548 -> 549 ;
550 [label=<ActiveIngredient_CLOBETASOL PROPIONATE &le; 0.387<br/>gini = 0.198<br/>samples = 377<br/>value = [335, 42]<br/>class = AP>, fillcolor="#e89152"] ;
549 -> 550 ;
551 [label=<Form_FILM, EXTENDED RELEASE;TRANSDERMAL &le; 0.175<br/>gini = 0.2<br/>samples = 372<br/>value = [330, 42]<br/>class = AP>, fillcolor="#e89152"] ;
550 -> 551 ;
552 [label=<Form_SOLUTION;ORAL &le; 0.613<br/>gini = 0.208<br/>samples = 356<br/>value = [314, 42]<br/>class = AP>, fillcolor="#e89253"] ;
551 -> 552 ;
553 [label=<ActiveIngredient_CEFDINIR &le; 0.275<br/>gini = 0.213<br/>samples = 346<br/>value = [304, 42]<br/>class = AP>, fillcolor="#e99254"] ;
552 -> 553 ;
554 [label=<ActiveIngredient_ACYCLOVIR &le; 0.922<br/>gini = 0.214<br/>samples = 344<br/>value = [302, 42]<br/>class = AP>, fillcolor="#e99355"] ;
553 -> 554 ;
555 [label=<ActiveIngredient_OXYCODONE HYDROCHLORIDE &le; 0.297<br/>gini = 0.217<br/>samples = 340<br/>value = [298, 42]<br/>class = AP>, fillcolor="#e99355"] ;
554 -> 555 ;
556 [label=<SponsorName_TARO PHARM INDS LTD &le; 0.207<br/>gini = 0.184<br/>samples = 331<br/>value = [297, 34]<br/>class = AP>, fillcolor="#e88f50"] ;
555 -> 556 ;
557 [label=<ActiveIngredient_CEFUROXIME SODIUM &le; 0.045<br/>gini = 0.185<br/>samples = 329<br/>value = [295, 34]<br/>class = AP>, fillcolor="#e89050"] ;
556 -> 557 ;
558 [label=<ActiveIngredient_PIROXICAM &le; 0.268<br/>gini = 0.187<br/>samples = 326<br/>value = [292, 34]<br/>class = AP>, fillcolor="#e89050"] ;
557 -> 558 ;
559 [label=<ActiveIngredient_MINOCYCLINE HYDROCHLORIDE &le; 0.923<br/>gini = 0.188<br/>samples = 323<br/>value = [289, 34]<br/>class = AP>, fillcolor="#e89050"] ;
558 -> 559 ;
560 [label=<Form_TABLET;ORAL-28 &le; 0.979<br/>gini = 0.191<br/>samples = 318<br/>value = [284, 34]<br/>class = AP>, fillcolor="#e89051"] ;
559 -> 560 ;
561 [label=<SponsorName_IMPAX LABS &le; 0.438<br/>gini = 0.193<br/>samples = 315<br/>value = [281, 34]<br/>class = AP>, fillcolor="#e89051"] ;
560 -> 561 ;
562 [label=<ActiveIngredient_LOPINAVIR; RITONAVIR &le; 0.366<br/>gini = 0.181<br/>samples = 309<br/>value = [278, 31]<br/>class = AP>, fillcolor="#e88f4f"] ;
561 -> 562 ;
563 [label=<SponsorName_BAUSCH AND LOMB &le; 0.506<br/>gini = 0.176<br/>samples = 308<br/>value = [278, 30]<br/>class = AP>, fillcolor="#e88f4e"] ;
562 -> 563 ;
564 [label=<SponsorName_AUROBINDO PHARMA USA &le; 0.802<br/>gini = 0.181<br/>samples = 298<br/>value = [268, 30]<br/>class = AP>, fillcolor="#e88f4f"] ;
563 -> 564 ;
565 [label=<Form_TABLET, CHEWABLE;ORAL &le; 0.353<br/>gini = 0.183<br/>samples = 294<br/>value = [264, 30]<br/>class = AP>, fillcolor="#e88f50"] ;
564 -> 565 ;
566 [label=<ActiveIngredient_DONEPEZIL HYDROCHLORIDE &le; 0.552<br/>gini = 0.186<br/>samples = 289<br/>value = [259, 30]<br/>class = AP>, fillcolor="#e89050"] ;
565 -> 566 ;
567 [label=<Form_SUSPENSION;ORAL &le; 0.892<br/>gini = 0.176<br/>samples = 287<br/>value = [259, 28]<br/>class = AP>, fillcolor="#e88f4e"] ;
566 -> 567 ;
568 [label=<Form_SOLUTION; OPHTHALMIC &le; 0.627<br/>gini = 0.179<br/>samples = 281<br/>value = [253, 28]<br/>class = AP>, fillcolor="#e88f4f"] ;
567 -> 568 ;
569 [label=<SponsorName_PAR PHARM &le; 0.692<br/>gini = 0.174<br/>samples = 280<br/>value = [253, 27]<br/>class = AP>, fillcolor="#e88e4e"] ;
568 -> 569 ;
570 [label=<SponsorName_AMPHASTAR PHARM &le; 0.524<br/>gini = 0.171<br/>samples = 276<br/>value = [250, 26]<br/>class = AP>, fillcolor="#e88e4e"] ;
569 -> 570 ;
571 [label=<SponsorName_TEVA PHARMS &le; 0.302<br/>gini = 0.172<br/>samples = 274<br/>value = [248, 26]<br/>class = AP>, fillcolor="#e88e4e"] ;
570 -> 571 ;
572 [label=<SponsorName_ACTAVIS ELIZABETH &le; 0.417<br/>gini = 0.151<br/>samples = 256<br/>value = [235, 21]<br/>class = AP>, fillcolor="#e78c4b"] ;
571 -> 572 ;
573 [label=<ActiveIngredient_ERYTHROMYCIN ETHYLSUCCINATE &le; 0.721<br/>gini = 0.154<br/>samples = 250<br/>value = [229, 21]<br/>class = AP>, fillcolor="#e78d4b"] ;
572 -> 573 ;
574 [label=<SponsorName_SANDOZ &le; 0.697<br/>gini = 0.155<br/>samples = 248<br/>value = [227, 21]<br/>class = AP>, fillcolor="#e78d4b"] ;
573 -> 574 ;
575 [label=<SponsorName_CEPH INTL &le; 0.782<br/>gini = 0.105<br/>samples = 234<br/>value = [221, 13]<br/>class = AP>, fillcolor="#e78845"] ;
574 -> 575 ;
576 [label=<ActiveIngredient_THIOTHIXENE &le; 0.242<br/>gini = 0.106<br/>samples = 231<br/>value = [218, 13]<br/>class = AP>, fillcolor="#e78945"] ;
575 -> 576 ;
577 [label=<ActiveIngredient_CHLORDIAZEPOXIDE HYDROCHLORIDE &le; 0.038<br/>gini = 0.108<br/>samples = 228<br/>value = [215, 13]<br/>class = AP>, fillcolor="#e78945"] ;
576 -> 577 ;
578 [label=<Form_SOLUTION/DROPS;OPHTHALMIC &le; 0.865<br/>gini = 0.109<br/>samples = 225<br/>value = [212, 13]<br/>class = AP>, fillcolor="#e78945"] ;
577 -> 578 ;
579 [label=<ActiveIngredient_FLUOCINONIDE &le; 0.144<br/>gini = 0.114<br/>samples = 215<br/>value = [202, 13]<br/>class = AP>, fillcolor="#e78946"] ;
578 -> 579 ;
580 [label=<SponsorName_SUN PHARM INDS LTD &le; 0.171<br/>gini = 0.115<br/>samples = 213<br/>value = [200, 13]<br/>class = AP>, fillcolor="#e78946"] ;
579 -> 580 ;
581 [label=<SponsorName_FOSUN PHARMA &le; 0.164<br/>gini = 0.117<br/>samples = 208<br/>value = [195, 13]<br/>class = AP>, fillcolor="#e78946"] ;
580 -> 581 ;
582 [label=<ActiveIngredient_MIRTAZAPINE &le; 0.209<br/>gini = 0.118<br/>samples = 207<br/>value = [194, 13]<br/>class = AP>, fillcolor="#e78946"] ;
581 -> 582 ;
583 [label=<SponsorName_MYLAN PHARMA &le; 0.313<br/>gini = 0.119<br/>samples = 205<br/>value = [192, 13]<br/>class = AP>, fillcolor="#e78a46"] ;
582 -> 583 ;
584 [label=<ActiveIngredient_CYCLOSPORINE &le; 0.998<br/>gini = 0.094<br/>samples = 202<br/>value = [192, 10]<br/>class = AP>, fillcolor="#e68843"] ;
583 -> 584 ;
585 [label=<Form_TABLET, ORALLY DISINTEGRATING;ORAL &le; 0.026<br/>gini = 0.095<br/>samples = 200<br/>value = [190, 10]<br/>class = AP>, fillcolor="#e68843"] ;
584 -> 585 ;
586 [label=<ActiveIngredient_BETAMETHASONE VALERATE &le; 0.957<br/>gini = 0.079<br/>samples = 194<br/>value = [186, 8]<br/>class = AP>, fillcolor="#e68642"] ;
585 -> 586 ;
587 [label=<ActiveIngredient_PAROMOMYCIN SULFATE &le; 0.688<br/>gini = 0.08<br/>samples = 192<br/>value = [184, 8]<br/>class = AP>, fillcolor="#e68642"] ;
586 -> 587 ;
588 [label=<SponsorName_UPSHER SMITH LABS &le; 0.767<br/>gini = 0.081<br/>samples = 189<br/>value = [181, 8]<br/>class = AP>, fillcolor="#e68742"] ;
587 -> 588 ;
589 [label=<Form_TABLET; ORAL &le; 0.451<br/>gini = 0.082<br/>samples = 187<br/>value = [179, 8]<br/>class = AP>, fillcolor="#e68742"] ;
588 -> 589 ;
590 [label=<gini = 0.0<br/>samples = 179<br/>value = [179, 0]<br/>class = AP>, fillcolor="#e58139"] ;
589 -> 590 ;
591 [label=<gini = 0.0<br/>samples = 8<br/>value = [0, 8]<br/>class = TA>, fillcolor="#399de5"] ;
589 -> 591 ;
592 [label=<gini = 0.0<br/>samples = 2<br/>value = [2, 0]<br/>class = AP>, fillcolor="#e58139"] ;
588 -> 592 ;
593 [label=<gini = 0.0<br/>samples = 3<br/>value = [3, 0]<br/>class = AP>, fillcolor="#e58139"] ;
587 -> 593 ;
594 [label=<gini = 0.0<br/>samples = 2<br/>value = [2, 0]<br/>class = AP>, fillcolor="#e58139"] ;
586 -> 594 ;
595 [label=<ActiveIngredient_ONDANSETRON &le; 0.793<br/>gini = 0.444<br/>samples = 6<br/>value = [4, 2]<br/>class = AP>, fillcolor="#f2c09c"] ;
585 -> 595 ;
596 [label=<gini = 0.0<br/>samples = 3<br/>value = [3, 0]<br/>class = AP>, fillcolor="#e58139"] ;
595 -> 596 ;
597 [label=<SponsorName_NESHER PHARMS &le; 0.562<br/>gini = 0.444<br/>samples = 3<br/>value = [1, 2]<br/>class = TA>, fillcolor="#9ccef2"] ;
595 -> 597 ;
598 [label=<gini = 0.0<br/>samples = 1<br/>value = [1, 0]<br/>class = AP>, fillcolor="#e58139"] ;
597 -> 598 ;
599 [label=<gini = 0.0<br/>samples = 2<br/>value = [0, 2]<br/>class = TA>, fillcolor="#399de5"] ;
597 -> 599 ;
600 [label=<gini = 0.0<br/>samples = 2<br/>value = [2, 0]<br/>class = AP>, fillcolor="#e58139"] ;
584 -> 600 ;
601 [label=<gini = 0.0<br/>samples = 3<br/>value = [0, 3]<br/>class = TA>, fillcolor="#399de5"] ;
583 -> 601 ;
602 [label=<gini = 0.0<br/>samples = 2<br/>value = [2, 0]<br/>class = AP>, fillcolor="#e58139"] ;
582 -> 602 ;
603 [label=<gini = 0.0<br/>samples = 1<br/>value = [1, 0]<br/>class = AP>, fillcolor="#e58139"] ;
581 -> 603 ;
604 [label=<gini = 0.0<br/>samples = 5<br/>value = [5, 0]<br/>class = AP>, fillcolor="#e58139"] ;
580 -> 604 ;
605 [label=<gini = 0.0<br/>samples = 2<br/>value = [2, 0]<br/>class = AP>, fillcolor="#e58139"] ;
579 -> 605 ;
606 [label=<gini = 0.0<br/>samples = 10<br/>value = [10, 0]<br/>class = AP>, fillcolor="#e58139"] ;
578 -> 606 ;
607 [label=<gini = 0.0<br/>samples = 3<br/>value = [3, 0]<br/>class = AP>, fillcolor="#e58139"] ;
577 -> 607 ;
608 [label=<gini = 0.0<br/>samples = 3<br/>value = [3, 0]<br/>class = AP>, fillcolor="#e58139"] ;
576 -> 608 ;
609 [label=<gini = 0.0<br/>samples = 3<br/>value = [3, 0]<br/>class = AP>, fillcolor="#e58139"] ;
575 -> 609 ;
610 [label=<ActiveIngredient_TAMSULOSIN HYDROCHLORIDE &le; 0.354<br/>gini = 0.49<br/>samples = 14<br/>value = [6, 8]<br/>class = TA>, fillcolor="#cee6f8"] ;
574 -> 610 ;
611 [label=<ActiveIngredient_OMEPRAZOLE &le; 0.099<br/>gini = 0.473<br/>samples = 13<br/>value = [5, 8]<br/>class = TA>, fillcolor="#b5daf5"] ;
610 -> 611 ;
612 [label=<ActiveIngredient_ROSIGLITAZONE MALEATE &le; 0.856<br/>gini = 0.444<br/>samples = 12<br/>value = [4, 8]<br/>class = TA>, fillcolor="#9ccef2"] ;
611 -> 612 ;
613 [label=<ActiveIngredient_THIOTHIXENE &le; 0.172<br/>gini = 0.494<br/>samples = 9<br/>value = [4, 5]<br/>class = TA>, fillcolor="#d7ebfa"] ;
612 -> 613 ;
614 [label=<ActiveIngredient_ESCITALOPRAM OXALATE &le; 0.463<br/>gini = 0.469<br/>samples = 8<br/>value = [3, 5]<br/>class = TA>, fillcolor="#b0d8f5"] ;
613 -> 614 ;
615 [label=<SubmissionNo &le; 9.435<br/>gini = 0.48<br/>samples = 5<br/>value = [3, 2]<br/>class = AP>, fillcolor="#f6d5bd"] ;
614 -> 615 ;
616 [label=<SubmissionNo &le; 2.807<br/>gini = 0.5<br/>samples = 4<br/>value = [2, 2]<br/>class = AP>, fillcolor="#ffffff"] ;
615 -> 616 ;
617 [label=<Form_FOR SUSPENSION;ORAL &le; 0.647<br/>gini = 0.444<br/>samples = 3<br/>value = [1, 2]<br/>class = TA>, fillcolor="#9ccef2"] ;
616 -> 617 ;
618 [label=<gini = 0.0<br/>samples = 2<br/>value = [0, 2]<br/>class = TA>, fillcolor="#399de5"] ;
617 -> 618 ;
619 [label=<gini = 0.0<br/>samples = 1<br/>value = [1, 0]<br/>class = AP>, fillcolor="#e58139"] ;
617 -> 619 ;
620 [label=<gini = 0.0<br/>samples = 1<br/>value = [1, 0]<br/>class = AP>, fillcolor="#e58139"] ;
616 -> 620 ;
621 [label=<gini = 0.0<br/>samples = 1<br/>value = [1, 0]<br/>class = AP>, fillcolor="#e58139"] ;
615 -> 621 ;
622 [label=<gini = 0.0<br/>samples = 3<br/>value = [0, 3]<br/>class = TA>, fillcolor="#399de5"] ;
614 -> 622 ;
623 [label=<gini = 0.0<br/>samples = 1<br/>value = [1, 0]<br/>class = AP>, fillcolor="#e58139"] ;
613 -> 623 ;
624 [label=<gini = 0.0<br/>samples = 3<br/>value = [0, 3]<br/>class = TA>, fillcolor="#399de5"] ;
612 -> 624 ;
625 [label=<gini = 0.0<br/>samples = 1<br/>value = [1, 0]<br/>class = AP>, fillcolor="#e58139"] ;
611 -> 625 ;
626 [label=<gini = 0.0<br/>samples = 1<br/>value = [1, 0]<br/>class = AP>, fillcolor="#e58139"] ;
610 -> 626 ;
627 [label=<gini = 0.0<br/>samples = 2<br/>value = [2, 0]<br/>class = AP>, fillcolor="#e58139"] ;
573 -> 627 ;
628 [label=<gini = 0.0<br/>samples = 6<br/>value = [6, 0]<br/>class = AP>, fillcolor="#e58139"] ;
572 -> 628 ;
629 [label=<SubmissionNo &le; 7.181<br/>gini = 0.401<br/>samples = 18<br/>value = [13, 5]<br/>class = AP>, fillcolor="#efb185"] ;
571 -> 629 ;
630 [label=<ActiveIngredient_MODAFINIL &le; 0.13<br/>gini = 0.459<br/>samples = 14<br/>value = [9, 5]<br/>class = AP>, fillcolor="#f3c7a7"] ;
629 -> 630 ;
631 [label=<SubmissionNo &le; 5.659<br/>gini = 0.375<br/>samples = 12<br/>value = [9, 3]<br/>class = AP>, fillcolor="#eeab7b"] ;
630 -> 631 ;
632 [label=<SubmissionNo &le; 2.851<br/>gini = 0.42<br/>samples = 10<br/>value = [7, 3]<br/>class = AP>, fillcolor="#f0b78e"] ;
631 -> 632 ;
633 [label=<SubmissionNo &le; 1.017<br/>gini = 0.469<br/>samples = 8<br/>value = [5, 3]<br/>class = AP>, fillcolor="#f5cdb0"] ;
632 -> 633 ;
634 [label=<ActiveIngredient_MYCOPHENOLATE MOFETIL &le; 0.144<br/>gini = 0.49<br/>samples = 7<br/>value = [4, 3]<br/>class = AP>, fillcolor="#f8e0ce"] ;
633 -> 634 ;
635 [label=<Form_TABLET; ORAL &le; 0.477<br/>gini = 0.5<br/>samples = 6<br/>value = [3, 3]<br/>class = AP>, fillcolor="#ffffff"] ;
634 -> 635 ;
636 [label=<gini = 0.0<br/>samples = 3<br/>value = [3, 0]<br/>class = AP>, fillcolor="#e58139"] ;
635 -> 636 ;
637 [label=<gini = 0.0<br/>samples = 3<br/>value = [0, 3]<br/>class = TA>, fillcolor="#399de5"] ;
635 -> 637 ;
638 [label=<gini = 0.0<br/>samples = 1<br/>value = [1, 0]<br/>class = AP>, fillcolor="#e58139"] ;
634 -> 638 ;
639 [label=<gini = 0.0<br/>samples = 1<br/>value = [1, 0]<br/>class = AP>, fillcolor="#e58139"] ;
633 -> 639 ;
640 [label=<gini = 0.0<br/>samples = 2<br/>value = [2, 0]<br/>class = AP>, fillcolor="#e58139"] ;
632 -> 640 ;
641 [label=<gini = 0.0<br/>samples = 2<br/>value = [2, 0]<br/>class = AP>, fillcolor="#e58139"] ;
631 -> 641 ;
642 [label=<gini = 0.0<br/>samples = 2<br/>value = [0, 2]<br/>class = TA>, fillcolor="#399de5"] ;
630 -> 642 ;
643 [label=<gini = 0.0<br/>samples = 4<br/>value = [4, 0]<br/>class = AP>, fillcolor="#e58139"] ;
629 -> 643 ;
644 [label=<gini = 0.0<br/>samples = 2<br/>value = [2, 0]<br/>class = AP>, fillcolor="#e58139"] ;
570 -> 644 ;
645 [label=<ActiveIngredient_RISPERIDONE &le; 0.702<br/>gini = 0.375<br/>samples = 4<br/>value = [3, 1]<br/>class = AP>, fillcolor="#eeab7b"] ;
569 -> 645 ;
646 [label=<ActiveIngredient_ALPRAZOLAM &le; 0.359<br/>gini = 0.444<br/>samples = 3<br/>value = [2, 1]<br/>class = AP>, fillcolor="#f2c09c"] ;
645 -> 646 ;
647 [label=<Form_TABLET, EXTENDED RELEASE; ORAL &le; 0.611<br/>gini = 0.5<br/>samples = 2<br/>value = [1, 1]<br/>class = AP>, fillcolor="#ffffff"] ;
646 -> 647 ;
648 [label=<gini = 0.0<br/>samples = 1<br/>value = [1, 0]<br/>class = AP>, fillcolor="#e58139"] ;
647 -> 648 ;
649 [label=<gini = 0.0<br/>samples = 1<br/>value = [0, 1]<br/>class = TA>, fillcolor="#399de5"] ;
647 -> 649 ;
650 [label=<gini = 0.0<br/>samples = 1<br/>value = [1, 0]<br/>class = AP>, fillcolor="#e58139"] ;
646 -> 650 ;
651 [label=<gini = 0.0<br/>samples = 1<br/>value = [1, 0]<br/>class = AP>, fillcolor="#e58139"] ;
645 -> 651 ;
652 [label=<gini = 0.0<br/>samples = 1<br/>value = [0, 1]<br/>class = TA>, fillcolor="#399de5"] ;
568 -> 652 ;
653 [label=<gini = 0.0<br/>samples = 6<br/>value = [6, 0]<br/>class = AP>, fillcolor="#e58139"] ;
567 -> 653 ;
654 [label=<gini = 0.0<br/>samples = 2<br/>value = [0, 2]<br/>class = TA>, fillcolor="#399de5"] ;
566 -> 654 ;
655 [label=<gini = 0.0<br/>samples = 5<br/>value = [5, 0]<br/>class = AP>, fillcolor="#e58139"] ;
565 -> 655 ;
656 [label=<gini = 0.0<br/>samples = 4<br/>value = [4, 0]<br/>class = AP>, fillcolor="#e58139"] ;
564 -> 656 ;
657 [label=<gini = 0.0<br/>samples = 10<br/>value = [10, 0]<br/>class = AP>, fillcolor="#e58139"] ;
563 -> 657 ;
658 [label=<gini = 0.0<br/>samples = 1<br/>value = [0, 1]<br/>class = TA>, fillcolor="#399de5"] ;
562 -> 658 ;
659 [label=<Form_CAPSULE;ORAL &le; 0.613<br/>gini = 0.5<br/>samples = 6<br/>value = [3, 3]<br/>class = AP>, fillcolor="#ffffff"] ;
561 -> 659 ;
660 [label=<gini = 0.0<br/>samples = 3<br/>value = [0, 3]<br/>class = TA>, fillcolor="#399de5"] ;
659 -> 660 ;
661 [label=<gini = 0.0<br/>samples = 3<br/>value = [3, 0]<br/>class = AP>, fillcolor="#e58139"] ;
659 -> 661 ;
662 [label=<gini = 0.0<br/>samples = 3<br/>value = [3, 0]<br/>class = AP>, fillcolor="#e58139"] ;
560 -> 662 ;
663 [label=<gini = 0.0<br/>samples = 5<br/>value = [5, 0]<br/>class = AP>, fillcolor="#e58139"] ;
559 -> 663 ;
664 [label=<gini = 0.0<br/>samples = 3<br/>value = [3, 0]<br/>class = AP>, fillcolor="#e58139"] ;
558 -> 664 ;
665 [label=<gini = 0.0<br/>samples = 3<br/>value = [3, 0]<br/>class = AP>, fillcolor="#e58139"] ;
557 -> 665 ;
666 [label=<gini = 0.0<br/>samples = 2<br/>value = [2, 0]<br/>class = AP>, fillcolor="#e58139"] ;
556 -> 666 ;
667 [label=<SponsorName_MALLINCKRODT &le; 0.804<br/>gini = 0.198<br/>samples = 9<br/>value = [1, 8]<br/>class = TA>, fillcolor="#52a9e8"] ;
555 -> 667 ;
668 [label=<gini = 0.0<br/>samples = 8<br/>value = [0, 8]<br/>class = TA>, fillcolor="#399de5"] ;
667 -> 668 ;
669 [label=<gini = 0.0<br/>samples = 1<br/>value = [1, 0]<br/>class = AP>, fillcolor="#e58139"] ;
667 -> 669 ;
670 [label=<gini = 0.0<br/>samples = 4<br/>value = [4, 0]<br/>class = AP>, fillcolor="#e58139"] ;
554 -> 670 ;
671 [label=<gini = 0.0<br/>samples = 2<br/>value = [2, 0]<br/>class = AP>, fillcolor="#e58139"] ;
553 -> 671 ;
672 [label=<gini = 0.0<br/>samples = 10<br/>value = [10, 0]<br/>class = AP>, fillcolor="#e58139"] ;
552 -> 672 ;
673 [label=<gini = 0.0<br/>samples = 16<br/>value = [16, 0]<br/>class = AP>, fillcolor="#e58139"] ;
551 -> 673 ;
674 [label=<gini = 0.0<br/>samples = 5<br/>value = [5, 0]<br/>class = AP>, fillcolor="#e58139"] ;
550 -> 674 ;
675 [label=<gini = 0.0<br/>samples = 6<br/>value = [6, 0]<br/>class = AP>, fillcolor="#e58139"] ;
549 -> 675 ;
676 [label=<gini = 0.0<br/>samples = 3<br/>value = [3, 0]<br/>class = AP>, fillcolor="#e58139"] ;
548 -> 676 ;
677 [label=<ActiveIngredient_LABETALOL HYDROCHLORIDE &le; 0.615<br/>gini = 0.03<br/>samples = 195<br/>value = [192, 3]<br/>class = AP>, fillcolor="#e5833c"] ;
547 -> 677 ;
678 [label=<ActiveIngredient_MILRINONE LACTATE &le; 0.385<br/>gini = 0.021<br/>samples = 193<br/>value = [191, 2]<br/>class = AP>, fillcolor="#e5823b"] ;
677 -> 678 ;
679 [label=<SponsorName_BRISTOL MYERS &le; 0.81<br/>gini = 0.021<br/>samples = 192<br/>value = [190, 2]<br/>class = AP>, fillcolor="#e5823b"] ;
678 -> 679 ;
680 [label=<SponsorName_STERISCIENCE &le; 0.795<br/>gini = 0.021<br/>samples = 191<br/>value = [189, 2]<br/>class = AP>, fillcolor="#e5823b"] ;
679 -> 680 ;
681 [label=<SponsorName_MYLAN INSTITUTIONAL &le; 0.598<br/>gini = 0.021<br/>samples = 188<br/>value = [186, 2]<br/>class = AP>, fillcolor="#e5823b"] ;
680 -> 681 ;
682 [label=<ActiveIngredient_LIDOCAINE HYDROCHLORIDE &le; 0.105<br/>gini = 0.021<br/>samples = 186<br/>value = [184, 2]<br/>class = AP>, fillcolor="#e5823b"] ;
681 -> 682 ;
683 [label=<SponsorName_SEPTODONT &le; 0.565<br/>gini = 0.023<br/>samples = 174<br/>value = [172, 2]<br/>class = AP>, fillcolor="#e5823b"] ;
682 -> 683 ;
684 [label=<ActiveIngredient_BRETYLIUM TOSYLATE &le; 0.289<br/>gini = 0.023<br/>samples = 172<br/>value = [170, 2]<br/>class = AP>, fillcolor="#e5823b"] ;
683 -> 684 ;
685 [label=<ActiveIngredient_LORAZEPAM &le; 0.878<br/>gini = 0.023<br/>samples = 171<br/>value = [169, 2]<br/>class = AP>, fillcolor="#e5823b"] ;
684 -> 685 ;
686 [label=<SponsorName_WATSON LABS INC &le; 0.48<br/>gini = 0.024<br/>samples = 168<br/>value = [166, 2]<br/>class = AP>, fillcolor="#e5833b"] ;
685 -> 686 ;
687 [label=<SponsorName_WYETH AYERST &le; 0.849<br/>gini = 0.025<br/>samples = 155<br/>value = [153, 2]<br/>class = AP>, fillcolor="#e5833c"] ;
686 -> 687 ;
688 [label=<ActiveIngredient_MEPIVACAINE HYDROCHLORIDE &le; 0.126<br/>gini = 0.026<br/>samples = 153<br/>value = [151, 2]<br/>class = AP>, fillcolor="#e5833c"] ;
687 -> 688 ;
689 [label=<SponsorName_HOSPIRA &le; 0.217<br/>gini = 0.026<br/>samples = 150<br/>value = [148, 2]<br/>class = AP>, fillcolor="#e5833c"] ;
688 -> 689 ;
690 [label=<gini = 0.0<br/>samples = 99<br/>value = [99, 0]<br/>class = AP>, fillcolor="#e58139"] ;
689 -> 690 ;
691 [label=<ActiveIngredient_FUROSEMIDE &le; 0.911<br/>gini = 0.075<br/>samples = 51<br/>value = [49, 2]<br/>class = AP>, fillcolor="#e68641"] ;
689 -> 691 ;
692 [label=<ActiveIngredient_CARBOPLATIN &le; 0.047<br/>gini = 0.077<br/>samples = 50<br/>value = [48, 2]<br/>class = AP>, fillcolor="#e68641"] ;
691 -> 692 ;
693 [label=<ActiveIngredient_VANCOMYCIN HYDROCHLORIDE &le; 0.773<br/>gini = 0.078<br/>samples = 49<br/>value = [47, 2]<br/>class = AP>, fillcolor="#e68641"] ;
692 -> 693 ;
694 [label=<ActiveIngredient_TOBRAMYCIN SULFATE &le; 0.257<br/>gini = 0.08<br/>samples = 48<br/>value = [46, 2]<br/>class = AP>, fillcolor="#e68642"] ;
693 -> 694 ;
695 [label=<ActiveIngredient_MORPHINE SULFATE &le; 0.757<br/>gini = 0.081<br/>samples = 47<br/>value = [45, 2]<br/>class = AP>, fillcolor="#e68742"] ;
694 -> 695 ;
696 [label=<ActiveIngredient_PANCURONIUM BROMIDE &le; 0.528<br/>gini = 0.085<br/>samples = 45<br/>value = [43, 2]<br/>class = AP>, fillcolor="#e68742"] ;
695 -> 696 ;
697 [label=<ActiveIngredient_GEMCITABINE HYDROCHLORIDE &le; 0.84<br/>gini = 0.089<br/>samples = 43<br/>value = [41, 2]<br/>class = AP>, fillcolor="#e68743"] ;
696 -> 697 ;
698 [label=<ActiveIngredient_SULFAMETHOXAZOLE; TRIMETHOPRIM &le; 0.7<br/>gini = 0.091<br/>samples = 42<br/>value = [40, 2]<br/>class = AP>, fillcolor="#e68743"] ;
697 -> 698 ;
699 [label=<ActiveIngredient_BUPIVACAINE HYDROCHLORIDE; EPINEPHRINE &le; 0.942<br/>gini = 0.093<br/>samples = 41<br/>value = [39, 2]<br/>class = AP>, fillcolor="#e68743"] ;
698 -> 699 ;
700 [label=<ActiveIngredient_AZITHROMYCIN &le; 0.817<br/>gini = 0.105<br/>samples = 36<br/>value = [34, 2]<br/>class = AP>, fillcolor="#e78845"] ;
699 -> 700 ;
701 [label=<ActiveIngredient_GENTAMICIN SULFATE &le; 0.194<br/>gini = 0.108<br/>samples = 35<br/>value = [33, 2]<br/>class = AP>, fillcolor="#e78945"] ;
700 -> 701 ;
702 [label=<ActiveIngredient_SODIUM NITROPRUSSIDE &le; 0.677<br/>gini = 0.124<br/>samples = 30<br/>value = [28, 2]<br/>class = AP>, fillcolor="#e78a47"] ;
701 -> 702 ;
703 [label=<ActiveIngredient_POTASSIUM CHLORIDE &le; 0.378<br/>gini = 0.128<br/>samples = 29<br/>value = [27, 2]<br/>class = AP>, fillcolor="#e78a48"] ;
702 -> 703 ;
704 [label=<ActiveIngredient_ERYTHROMYCIN LACTOBIONATE &le; 0.414<br/>gini = 0.133<br/>samples = 28<br/>value = [26, 2]<br/>class = AP>, fillcolor="#e78b48"] ;
703 -> 704 ;
705 [label=<ActiveIngredient_CIMETIDINE HYDROCHLORIDE &le; 0.043<br/>gini = 0.137<br/>samples = 27<br/>value = [25, 2]<br/>class = AP>, fillcolor="#e78b49"] ;
704 -> 705 ;
706 [label=<SubmissionNo &le; 3.541<br/>gini = 0.153<br/>samples = 24<br/>value = [22, 2]<br/>class = AP>, fillcolor="#e78c4b"] ;
705 -> 706 ;
707 [label=<ActiveIngredient_IOPAMIDOL &le; 0.664<br/>gini = 0.245<br/>samples = 14<br/>value = [12, 2]<br/>class = AP>, fillcolor="#e9965a"] ;
706 -> 707 ;
708 [label=<ActiveIngredient_DOPAMINE HYDROCHLORIDE &le; 0.445<br/>gini = 0.26<br/>samples = 13<br/>value = [11, 2]<br/>class = AP>, fillcolor="#ea985d"] ;
707 -> 708 ;
709 [label=<ActiveIngredient_BUPIVACAINE HYDROCHLORIDE &le; 0.908<br/>gini = 0.278<br/>samples = 12<br/>value = [10, 2]<br/>class = AP>, fillcolor="#ea9a61"] ;
708 -> 709 ;
710 [label=<ActiveIngredient_THIAMINE HYDROCHLORIDE &le; 0.211<br/>gini = 0.298<br/>samples = 11<br/>value = [9, 2]<br/>class = AP>, fillcolor="#eb9d65"] ;
709 -> 710 ;
711 [label=<ActiveIngredient_AMIKACIN SULFATE &le; 0.458<br/>gini = 0.32<br/>samples = 10<br/>value = [8, 2]<br/>class = AP>, fillcolor="#eca06a"] ;
710 -> 711 ;
712 [label=<ActiveIngredient_BUTORPHANOL TARTRATE &le; 0.33<br/>gini = 0.346<br/>samples = 9<br/>value = [7, 2]<br/>class = AP>, fillcolor="#eca572"] ;
711 -> 712 ;
